digraph Tree {
node [shape=box, fontname="helvetica"] ;
edge [fontname="helvetica"] ;
0 [label="No_of_children_born <= 0.5\ngini = 0.493\nsamples = 975\nvalue = [547, 428]\nclass = No"] ;
1 [label="Wife_age <= 18.0\ngini = 0.061\nsamples = 63\nvalue = [2, 61]\nclass = Yes"] ;
0 -> 1 [labeldistance=2.5, labelangle=45, headlabel="True"] ;
2 [label="gini = 0.0\nsamples = 1\nvalue = [1, 0]\nclass = No"] ;
1 -> 2 ;
3 [label="Husband_Occupation <= 3.5\ngini = 0.032\nsamples = 62\nvalue = [1, 61]\nclass = Yes"] ;
1 -> 3 ;
4 [label="gini = 0.0\nsamples = 59\nvalue = [0, 59]\nclass = Yes"] ;
3 -> 4 ;
5 [label="Wife_religion <= 0.5\ngini = 0.444\nsamples = 3\nvalue = [1, 2]\nclass = Yes"] ;
3 -> 5 ;
6 [label="gini = 0.0\nsamples = 1\nvalue = [1, 0]\nclass = No"] ;
5 -> 6 ;
7 [label="gini = 0.0\nsamples = 2\nvalue = [0, 2]\nclass = Yes"] ;
5 -> 7 ;
8 [label="Wife_age <= 41.5\ngini = 0.481\nsamples = 912\nvalue = [545, 367]\nclass = No"] ;
0 -> 8 [labeldistance=2.5, labelangle=-45, headlabel="False"] ;
9 [label="Wife_education <= 2.5\ngini = 0.45\nsamples = 733\nvalue = [482, 251]\nclass = No"] ;
8 -> 9 ;
10 [label="Wife_age <= 36.5\ngini = 0.485\nsamples = 475\nvalue = [279, 196]\nclass = No"] ;
9 -> 10 ;
11 [label="No_of_children_born <= 1.5\ngini = 0.467\nsamples = 402\nvalue = [253, 149]\nclass = No"] ;
10 -> 11 ;
12 [label="Wife_age <= 24.5\ngini = 0.493\nsamples = 86\nvalue = [38, 48]\nclass = Yes"] ;
11 -> 12 ;
13 [label="Wife_age <= 20.5\ngini = 0.478\nsamples = 43\nvalue = [26, 17]\nclass = No"] ;
12 -> 13 ;
14 [label="Husband_education <= 1.5\ngini = 0.488\nsamples = 19\nvalue = [8, 11]\nclass = Yes"] ;
13 -> 14 ;
15 [label="gini = 0.0\nsamples = 2\nvalue = [2, 0]\nclass = No"] ;
14 -> 15 ;
16 [label="Standard_of_living_index <= 0.5\ngini = 0.457\nsamples = 17\nvalue = [6, 11]\nclass = Yes"] ;
14 -> 16 ;
17 [label="Husband_education <= 2.5\ngini = 0.375\nsamples = 4\nvalue = [3, 1]\nclass = No"] ;
16 -> 17 ;
18 [label="gini = 0.0\nsamples = 2\nvalue = [2, 0]\nclass = No"] ;
17 -> 18 ;
19 [label="Husband_Occupation <= 2.5\ngini = 0.5\nsamples = 2\nvalue = [1, 1]\nclass = No"] ;
17 -> 19 ;
20 [label="gini = 0.0\nsamples = 1\nvalue = [1, 0]\nclass = No"] ;
19 -> 20 ;
21 [label="gini = 0.0\nsamples = 1\nvalue = [0, 1]\nclass = Yes"] ;
19 -> 21 ;
22 [label="Husband_education <= 2.5\ngini = 0.355\nsamples = 13\nvalue = [3, 10]\nclass = Yes"] ;
16 -> 22 ;
23 [label="gini = 0.0\nsamples = 6\nvalue = [0, 6]\nclass = Yes"] ;
22 -> 23 ;
24 [label="Wife_age <= 16.5\ngini = 0.49\nsamples = 7\nvalue = [3, 4]\nclass = Yes"] ;
22 -> 24 ;
25 [label="gini = 0.0\nsamples = 2\nvalue = [0, 2]\nclass = Yes"] ;
24 -> 25 ;
26 [label="Standard_of_living_index <= 2.5\ngini = 0.48\nsamples = 5\nvalue = [3, 2]\nclass = No"] ;
24 -> 26 ;
27 [label="Wife_age <= 17.5\ngini = 0.444\nsamples = 3\nvalue = [1, 2]\nclass = Yes"] ;
26 -> 27 ;
28 [label="gini = 0.0\nsamples = 1\nvalue = [1, 0]\nclass = No"] ;
27 -> 28 ;
29 [label="gini = 0.0\nsamples = 2\nvalue = [0, 2]\nclass = Yes"] ;
27 -> 29 ;
30 [label="gini = 0.0\nsamples = 2\nvalue = [2, 0]\nclass = No"] ;
26 -> 30 ;
31 [label="Wife_age <= 21.5\ngini = 0.375\nsamples = 24\nvalue = [18, 6]\nclass = No"] ;
13 -> 31 ;
32 [label="Husband_Occupation <= 2.5\ngini = 0.463\nsamples = 11\nvalue = [7, 4]\nclass = No"] ;
31 -> 32 ;
33 [label="gini = 0.0\nsamples = 1\nvalue = [0, 1]\nclass = Yes"] ;
32 -> 33 ;
34 [label="Wife_Working <= 0.5\ngini = 0.42\nsamples = 10\nvalue = [7, 3]\nclass = No"] ;
32 -> 34 ;
35 [label="Husband_education <= 1.5\ngini = 0.245\nsamples = 7\nvalue = [6, 1]\nclass = No"] ;
34 -> 35 ;
36 [label="Standard_of_living_index <= 1.5\ngini = 0.444\nsamples = 3\nvalue = [2, 1]\nclass = No"] ;
35 -> 36 ;
37 [label="gini = 0.5\nsamples = 2\nvalue = [1, 1]\nclass = No"] ;
36 -> 37 ;
38 [label="gini = 0.0\nsamples = 1\nvalue = [1, 0]\nclass = No"] ;
36 -> 38 ;
39 [label="gini = 0.0\nsamples = 4\nvalue = [4, 0]\nclass = No"] ;
35 -> 39 ;
40 [label="Husband_education <= 2.5\ngini = 0.444\nsamples = 3\nvalue = [1, 2]\nclass = Yes"] ;
34 -> 40 ;
41 [label="gini = 0.0\nsamples = 2\nvalue = [0, 2]\nclass = Yes"] ;
40 -> 41 ;
42 [label="gini = 0.0\nsamples = 1\nvalue = [1, 0]\nclass = No"] ;
40 -> 42 ;
43 [label="Husband_education <= 2.5\ngini = 0.26\nsamples = 13\nvalue = [11, 2]\nclass = No"] ;
31 -> 43 ;
44 [label="Standard_of_living_index <= 2.5\ngini = 0.408\nsamples = 7\nvalue = [5, 2]\nclass = No"] ;
43 -> 44 ;
45 [label="Wife_education <= 1.5\ngini = 0.278\nsamples = 6\nvalue = [5, 1]\nclass = No"] ;
44 -> 45 ;
46 [label="gini = 0.0\nsamples = 1\nvalue = [0, 1]\nclass = Yes"] ;
45 -> 46 ;
47 [label="gini = 0.0\nsamples = 5\nvalue = [5, 0]\nclass = No"] ;
45 -> 47 ;
48 [label="gini = 0.0\nsamples = 1\nvalue = [0, 1]\nclass = Yes"] ;
44 -> 48 ;
49 [label="gini = 0.0\nsamples = 6\nvalue = [6, 0]\nclass = No"] ;
43 -> 49 ;
50 [label="Husband_education <= 2.5\ngini = 0.402\nsamples = 43\nvalue = [12, 31]\nclass = Yes"] ;
12 -> 50 ;
51 [label="Wife_education <= 1.5\ngini = 0.473\nsamples = 26\nvalue = [10, 16]\nclass = Yes"] ;
50 -> 51 ;
52 [label="Husband_education <= 1.5\ngini = 0.305\nsamples = 16\nvalue = [3, 13]\nclass = Yes"] ;
51 -> 52 ;
53 [label="Husband_Occupation <= 2.5\ngini = 0.5\nsamples = 4\nvalue = [2, 2]\nclass = No"] ;
52 -> 53 ;
54 [label="gini = 0.0\nsamples = 2\nvalue = [0, 2]\nclass = Yes"] ;
53 -> 54 ;
55 [label="gini = 0.0\nsamples = 2\nvalue = [2, 0]\nclass = No"] ;
53 -> 55 ;
56 [label="Husband_Occupation <= 3.5\ngini = 0.153\nsamples = 12\nvalue = [1, 11]\nclass = Yes"] ;
52 -> 56 ;
57 [label="gini = 0.0\nsamples = 9\nvalue = [0, 9]\nclass = Yes"] ;
56 -> 57 ;
58 [label="Wife_age <= 25.5\ngini = 0.444\nsamples = 3\nvalue = [1, 2]\nclass = Yes"] ;
56 -> 58 ;
59 [label="Standard_of_living_index <= 2.0\ngini = 0.5\nsamples = 2\nvalue = [1, 1]\nclass = No"] ;
58 -> 59 ;
60 [label="gini = 0.0\nsamples = 1\nvalue = [0, 1]\nclass = Yes"] ;
59 -> 60 ;
61 [label="gini = 0.0\nsamples = 1\nvalue = [1, 0]\nclass = No"] ;
59 -> 61 ;
62 [label="gini = 0.0\nsamples = 1\nvalue = [0, 1]\nclass = Yes"] ;
58 -> 62 ;
63 [label="Husband_education <= 1.5\ngini = 0.42\nsamples = 10\nvalue = [7, 3]\nclass = No"] ;
51 -> 63 ;
64 [label="gini = 0.0\nsamples = 1\nvalue = [0, 1]\nclass = Yes"] ;
63 -> 64 ;
65 [label="Husband_Occupation <= 2.5\ngini = 0.346\nsamples = 9\nvalue = [7, 2]\nclass = No"] ;
63 -> 65 ;
66 [label="gini = 0.0\nsamples = 3\nvalue = [3, 0]\nclass = No"] ;
65 -> 66 ;
67 [label="Wife_age <= 30.0\ngini = 0.444\nsamples = 6\nvalue = [4, 2]\nclass = No"] ;
65 -> 67 ;
68 [label="Standard_of_living_index <= 1.5\ngini = 0.32\nsamples = 5\nvalue = [4, 1]\nclass = No"] ;
67 -> 68 ;
69 [label="Standard_of_living_index <= 0.5\ngini = 0.5\nsamples = 2\nvalue = [1, 1]\nclass = No"] ;
68 -> 69 ;
70 [label="gini = 0.0\nsamples = 1\nvalue = [1, 0]\nclass = No"] ;
69 -> 70 ;
71 [label="gini = 0.0\nsamples = 1\nvalue = [0, 1]\nclass = Yes"] ;
69 -> 71 ;
72 [label="gini = 0.0\nsamples = 3\nvalue = [3, 0]\nclass = No"] ;
68 -> 72 ;
73 [label="gini = 0.0\nsamples = 1\nvalue = [0, 1]\nclass = Yes"] ;
67 -> 73 ;
74 [label="Wife_education <= 1.5\ngini = 0.208\nsamples = 17\nvalue = [2, 15]\nclass = Yes"] ;
50 -> 74 ;
75 [label="Wife_age <= 26.5\ngini = 0.346\nsamples = 9\nvalue = [2, 7]\nclass = Yes"] ;
74 -> 75 ;
76 [label="gini = 0.0\nsamples = 3\nvalue = [0, 3]\nclass = Yes"] ;
75 -> 76 ;
77 [label="Wife_Working <= 0.5\ngini = 0.444\nsamples = 6\nvalue = [2, 4]\nclass = Yes"] ;
75 -> 77 ;
78 [label="Wife_age <= 31.5\ngini = 0.444\nsamples = 3\nvalue = [2, 1]\nclass = No"] ;
77 -> 78 ;
79 [label="gini = 0.0\nsamples = 2\nvalue = [2, 0]\nclass = No"] ;
78 -> 79 ;
80 [label="gini = 0.0\nsamples = 1\nvalue = [0, 1]\nclass = Yes"] ;
78 -> 80 ;
81 [label="gini = 0.0\nsamples = 3\nvalue = [0, 3]\nclass = Yes"] ;
77 -> 81 ;
82 [label="gini = 0.0\nsamples = 8\nvalue = [0, 8]\nclass = Yes"] ;
74 -> 82 ;
83 [label="Wife_age <= 27.5\ngini = 0.435\nsamples = 316\nvalue = [215, 101]\nclass = No"] ;
11 -> 83 ;
84 [label="Standard_of_living_index <= 0.5\ngini = 0.481\nsamples = 124\nvalue = [74, 50]\nclass = No"] ;
83 -> 84 ;
85 [label="Wife_age <= 20.0\ngini = 0.496\nsamples = 22\nvalue = [10, 12]\nclass = Yes"] ;
84 -> 85 ;
86 [label="gini = 0.0\nsamples = 2\nvalue = [0, 2]\nclass = Yes"] ;
85 -> 86 ;
87 [label="Media_exposure <= 0.5\ngini = 0.5\nsamples = 20\nvalue = [10, 10]\nclass = No"] ;
85 -> 87 ;
88 [label="Wife_age <= 22.0\ngini = 0.375\nsamples = 4\nvalue = [1, 3]\nclass = Yes"] ;
87 -> 88 ;
89 [label="gini = 0.0\nsamples = 1\nvalue = [1, 0]\nclass = No"] ;
88 -> 89 ;
90 [label="gini = 0.0\nsamples = 3\nvalue = [0, 3]\nclass = Yes"] ;
88 -> 90 ;
91 [label="Wife_education <= 0.5\ngini = 0.492\nsamples = 16\nvalue = [9, 7]\nclass = No"] ;
87 -> 91 ;
92 [label="gini = 0.0\nsamples = 2\nvalue = [2, 0]\nclass = No"] ;
91 -> 92 ;
93 [label="Wife_age <= 24.5\ngini = 0.5\nsamples = 14\nvalue = [7, 7]\nclass = No"] ;
91 -> 93 ;
94 [label="Wife_education <= 1.5\ngini = 0.375\nsamples = 4\nvalue = [3, 1]\nclass = No"] ;
93 -> 94 ;
95 [label="Wife_age <= 22.5\ngini = 0.5\nsamples = 2\nvalue = [1, 1]\nclass = No"] ;
94 -> 95 ;
96 [label="gini = 0.0\nsamples = 1\nvalue = [0, 1]\nclass = Yes"] ;
95 -> 96 ;
97 [label="gini = 0.0\nsamples = 1\nvalue = [1, 0]\nclass = No"] ;
95 -> 97 ;
98 [label="gini = 0.0\nsamples = 2\nvalue = [2, 0]\nclass = No"] ;
94 -> 98 ;
99 [label="Wife_age <= 26.5\ngini = 0.48\nsamples = 10\nvalue = [4, 6]\nclass = Yes"] ;
93 -> 99 ;
100 [label="Husband_education <= 1.5\ngini = 0.408\nsamples = 7\nvalue = [2, 5]\nclass = Yes"] ;
99 -> 100 ;
101 [label="gini = 0.0\nsamples = 3\nvalue = [0, 3]\nclass = Yes"] ;
100 -> 101 ;
102 [label="Wife_age <= 25.5\ngini = 0.5\nsamples = 4\nvalue = [2, 2]\nclass = No"] ;
100 -> 102 ;
103 [label="Husband_education <= 2.5\ngini = 0.444\nsamples = 3\nvalue = [2, 1]\nclass = No"] ;
102 -> 103 ;
104 [label="gini = 0.0\nsamples = 2\nvalue = [2, 0]\nclass = No"] ;
103 -> 104 ;
105 [label="gini = 0.0\nsamples = 1\nvalue = [0, 1]\nclass = Yes"] ;
103 -> 105 ;
106 [label="gini = 0.0\nsamples = 1\nvalue = [0, 1]\nclass = Yes"] ;
102 -> 106 ;
107 [label="Husband_education <= 1.5\ngini = 0.444\nsamples = 3\nvalue = [2, 1]\nclass = No"] ;
99 -> 107 ;
108 [label="gini = 0.0\nsamples = 1\nvalue = [1, 0]\nclass = No"] ;
107 -> 108 ;
109 [label="Husband_education <= 2.5\ngini = 0.5\nsamples = 2\nvalue = [1, 1]\nclass = No"] ;
107 -> 109 ;
110 [label="gini = 0.0\nsamples = 1\nvalue = [0, 1]\nclass = Yes"] ;
109 -> 110 ;
111 [label="gini = 0.0\nsamples = 1\nvalue = [1, 0]\nclass = No"] ;
109 -> 111 ;
112 [label="Wife_age <= 26.5\ngini = 0.468\nsamples = 102\nvalue = [64, 38]\nclass = No"] ;
84 -> 112 ;
113 [label="Husband_Occupation <= 1.5\ngini = 0.452\nsamples = 87\nvalue = [57, 30]\nclass = No"] ;
112 -> 113 ;
114 [label="gini = 0.0\nsamples = 8\nvalue = [8, 0]\nclass = No"] ;
113 -> 114 ;
115 [label="Wife_age <= 24.5\ngini = 0.471\nsamples = 79\nvalue = [49, 30]\nclass = No"] ;
113 -> 115 ;
116 [label="Husband_education <= 1.5\ngini = 0.496\nsamples = 46\nvalue = [25, 21]\nclass = No"] ;
115 -> 116 ;
117 [label="No_of_children_born <= 3.5\ngini = 0.375\nsamples = 12\nvalue = [9, 3]\nclass = No"] ;
116 -> 117 ;
118 [label="Husband_Occupation <= 2.5\ngini = 0.298\nsamples = 11\nvalue = [9, 2]\nclass = No"] ;
117 -> 118 ;
119 [label="Wife_age <= 21.0\ngini = 0.5\nsamples = 4\nvalue = [2, 2]\nclass = No"] ;
118 -> 119 ;
120 [label="gini = 0.0\nsamples = 1\nvalue = [0, 1]\nclass = Yes"] ;
119 -> 120 ;
121 [label="Wife_age <= 23.5\ngini = 0.444\nsamples = 3\nvalue = [2, 1]\nclass = No"] ;
119 -> 121 ;
122 [label="gini = 0.0\nsamples = 2\nvalue = [2, 0]\nclass = No"] ;
121 -> 122 ;
123 [label="gini = 0.0\nsamples = 1\nvalue = [0, 1]\nclass = Yes"] ;
121 -> 123 ;
124 [label="gini = 0.0\nsamples = 7\nvalue = [7, 0]\nclass = No"] ;
118 -> 124 ;
125 [label="gini = 0.0\nsamples = 1\nvalue = [0, 1]\nclass = Yes"] ;
117 -> 125 ;
126 [label="Standard_of_living_index <= 1.5\ngini = 0.498\nsamples = 34\nvalue = [16, 18]\nclass = Yes"] ;
116 -> 126 ;
127 [label="Wife_education <= 1.5\ngini = 0.408\nsamples = 7\nvalue = [2, 5]\nclass = Yes"] ;
126 -> 127 ;
128 [label="No_of_children_born <= 3.0\ngini = 0.444\nsamples = 3\nvalue = [2, 1]\nclass = No"] ;
127 -> 128 ;
129 [label="gini = 0.0\nsamples = 2\nvalue = [2, 0]\nclass = No"] ;
128 -> 129 ;
130 [label="gini = 0.0\nsamples = 1\nvalue = [0, 1]\nclass = Yes"] ;
128 -> 130 ;
131 [label="gini = 0.0\nsamples = 4\nvalue = [0, 4]\nclass = Yes"] ;
127 -> 131 ;
132 [label="Husband_Occupation <= 2.5\ngini = 0.499\nsamples = 27\nvalue = [14, 13]\nclass = No"] ;
126 -> 132 ;
133 [label="Wife_age <= 23.5\ngini = 0.444\nsamples = 9\nvalue = [6, 3]\nclass = No"] ;
132 -> 133 ;
134 [label="Husband_education <= 2.5\ngini = 0.245\nsamples = 7\nvalue = [6, 1]\nclass = No"] ;
133 -> 134 ;
135 [label="gini = 0.0\nsamples = 4\nvalue = [4, 0]\nclass = No"] ;
134 -> 135 ;
136 [label="Standard_of_living_index <= 2.5\ngini = 0.444\nsamples = 3\nvalue = [2, 1]\nclass = No"] ;
134 -> 136 ;
137 [label="No_of_children_born <= 2.5\ngini = 0.5\nsamples = 2\nvalue = [1, 1]\nclass = No"] ;
136 -> 137 ;
138 [label="gini = 0.0\nsamples = 1\nvalue = [0, 1]\nclass = Yes"] ;
137 -> 138 ;
139 [label="gini = 0.0\nsamples = 1\nvalue = [1, 0]\nclass = No"] ;
137 -> 139 ;
140 [label="gini = 0.0\nsamples = 1\nvalue = [1, 0]\nclass = No"] ;
136 -> 140 ;
141 [label="gini = 0.0\nsamples = 2\nvalue = [0, 2]\nclass = Yes"] ;
133 -> 141 ;
142 [label="Wife_age <= 23.5\ngini = 0.494\nsamples = 18\nvalue = [8, 10]\nclass = Yes"] ;
132 -> 142 ;
143 [label="Wife_religion <= 0.5\ngini = 0.375\nsamples = 12\nvalue = [3, 9]\nclass = Yes"] ;
142 -> 143 ;
144 [label="gini = 0.0\nsamples = 1\nvalue = [1, 0]\nclass = No"] ;
143 -> 144 ;
145 [label="Wife_Working <= 0.5\ngini = 0.298\nsamples = 11\nvalue = [2, 9]\nclass = Yes"] ;
143 -> 145 ;
146 [label="Wife_age <= 21.5\ngini = 0.18\nsamples = 10\nvalue = [1, 9]\nclass = Yes"] ;
145 -> 146 ;
147 [label="Wife_age <= 20.5\ngini = 0.444\nsamples = 3\nvalue = [1, 2]\nclass = Yes"] ;
146 -> 147 ;
148 [label="gini = 0.0\nsamples = 2\nvalue = [0, 2]\nclass = Yes"] ;
147 -> 148 ;
149 [label="gini = 0.0\nsamples = 1\nvalue = [1, 0]\nclass = No"] ;
147 -> 149 ;
150 [label="gini = 0.0\nsamples = 7\nvalue = [0, 7]\nclass = Yes"] ;
146 -> 150 ;
151 [label="gini = 0.0\nsamples = 1\nvalue = [1, 0]\nclass = No"] ;
145 -> 151 ;
152 [label="Wife_education <= 1.5\ngini = 0.278\nsamples = 6\nvalue = [5, 1]\nclass = No"] ;
142 -> 152 ;
153 [label="gini = 0.0\nsamples = 3\nvalue = [3, 0]\nclass = No"] ;
152 -> 153 ;
154 [label="Husband_education <= 2.5\ngini = 0.444\nsamples = 3\nvalue = [2, 1]\nclass = No"] ;
152 -> 154 ;
155 [label="gini = 0.5\nsamples = 2\nvalue = [1, 1]\nclass = No"] ;
154 -> 155 ;
156 [label="gini = 0.0\nsamples = 1\nvalue = [1, 0]\nclass = No"] ;
154 -> 156 ;
157 [label="Media_exposure <= 0.5\ngini = 0.397\nsamples = 33\nvalue = [24, 9]\nclass = No"] ;
115 -> 157 ;
158 [label="gini = 0.0\nsamples = 1\nvalue = [0, 1]\nclass = Yes"] ;
157 -> 158 ;
159 [label="Husband_education <= 2.5\ngini = 0.375\nsamples = 32\nvalue = [24, 8]\nclass = No"] ;
157 -> 159 ;
160 [label="No_of_children_born <= 4.5\ngini = 0.444\nsamples = 18\nvalue = [12, 6]\nclass = No"] ;
159 -> 160 ;
161 [label="Wife_education <= 0.5\ngini = 0.469\nsamples = 16\nvalue = [10, 6]\nclass = No"] ;
160 -> 161 ;
162 [label="gini = 0.0\nsamples = 2\nvalue = [2, 0]\nclass = No"] ;
161 -> 162 ;
163 [label="Husband_education <= 0.5\ngini = 0.49\nsamples = 14\nvalue = [8, 6]\nclass = No"] ;
161 -> 163 ;
164 [label="gini = 0.0\nsamples = 1\nvalue = [1, 0]\nclass = No"] ;
163 -> 164 ;
165 [label="No_of_children_born <= 3.5\ngini = 0.497\nsamples = 13\nvalue = [7, 6]\nclass = No"] ;
163 -> 165 ;
166 [label="Wife_education <= 1.5\ngini = 0.5\nsamples = 10\nvalue = [5, 5]\nclass = No"] ;
165 -> 166 ;
167 [label="No_of_children_born <= 2.5\ngini = 0.375\nsamples = 4\nvalue = [1, 3]\nclass = Yes"] ;
166 -> 167 ;
168 [label="gini = 0.5\nsamples = 2\nvalue = [1, 1]\nclass = No"] ;
167 -> 168 ;
169 [label="gini = 0.0\nsamples = 2\nvalue = [0, 2]\nclass = Yes"] ;
167 -> 169 ;
170 [label="Wife_Working <= 0.5\ngini = 0.444\nsamples = 6\nvalue = [4, 2]\nclass = No"] ;
166 -> 170 ;
171 [label="No_of_children_born <= 2.5\ngini = 0.32\nsamples = 5\nvalue = [4, 1]\nclass = No"] ;
170 -> 171 ;
172 [label="Husband_Occupation <= 2.5\ngini = 0.5\nsamples = 2\nvalue = [1, 1]\nclass = No"] ;
171 -> 172 ;
173 [label="gini = 0.0\nsamples = 1\nvalue = [1, 0]\nclass = No"] ;
172 -> 173 ;
174 [label="gini = 0.0\nsamples = 1\nvalue = [0, 1]\nclass = Yes"] ;
172 -> 174 ;
175 [label="gini = 0.0\nsamples = 3\nvalue = [3, 0]\nclass = No"] ;
171 -> 175 ;
176 [label="gini = 0.0\nsamples = 1\nvalue = [0, 1]\nclass = Yes"] ;
170 -> 176 ;
177 [label="Wife_education <= 1.5\ngini = 0.444\nsamples = 3\nvalue = [2, 1]\nclass = No"] ;
165 -> 177 ;
178 [label="gini = 0.0\nsamples = 2\nvalue = [2, 0]\nclass = No"] ;
177 -> 178 ;
179 [label="gini = 0.0\nsamples = 1\nvalue = [0, 1]\nclass = Yes"] ;
177 -> 179 ;
180 [label="gini = 0.0\nsamples = 2\nvalue = [2, 0]\nclass = No"] ;
160 -> 180 ;
181 [label="Wife_age <= 25.5\ngini = 0.245\nsamples = 14\nvalue = [12, 2]\nclass = No"] ;
159 -> 181 ;
182 [label="gini = 0.0\nsamples = 5\nvalue = [5, 0]\nclass = No"] ;
181 -> 182 ;
183 [label="Husband_Occupation <= 2.5\ngini = 0.346\nsamples = 9\nvalue = [7, 2]\nclass = No"] ;
181 -> 183 ;
184 [label="gini = 0.0\nsamples = 3\nvalue = [3, 0]\nclass = No"] ;
183 -> 184 ;
185 [label="No_of_children_born <= 2.5\ngini = 0.444\nsamples = 6\nvalue = [4, 2]\nclass = No"] ;
183 -> 185 ;
186 [label="gini = 0.5\nsamples = 2\nvalue = [1, 1]\nclass = No"] ;
185 -> 186 ;
187 [label="Wife_education <= 1.5\ngini = 0.375\nsamples = 4\nvalue = [3, 1]\nclass = No"] ;
185 -> 187 ;
188 [label="gini = 0.5\nsamples = 2\nvalue = [1, 1]\nclass = No"] ;
187 -> 188 ;
189 [label="gini = 0.0\nsamples = 2\nvalue = [2, 0]\nclass = No"] ;
187 -> 189 ;
190 [label="Wife_education <= 1.5\ngini = 0.498\nsamples = 15\nvalue = [7, 8]\nclass = Yes"] ;
112 -> 190 ;
191 [label="gini = 0.0\nsamples = 4\nvalue = [0, 4]\nclass = Yes"] ;
190 -> 191 ;
192 [label="Wife_Working <= 0.5\ngini = 0.463\nsamples = 11\nvalue = [7, 4]\nclass = No"] ;
190 -> 192 ;
193 [label="Husband_education <= 1.5\ngini = 0.42\nsamples = 10\nvalue = [7, 3]\nclass = No"] ;
192 -> 193 ;
194 [label="gini = 0.0\nsamples = 1\nvalue = [0, 1]\nclass = Yes"] ;
193 -> 194 ;
195 [label="Husband_Occupation <= 2.5\ngini = 0.346\nsamples = 9\nvalue = [7, 2]\nclass = No"] ;
193 -> 195 ;
196 [label="No_of_children_born <= 3.5\ngini = 0.444\nsamples = 6\nvalue = [4, 2]\nclass = No"] ;
195 -> 196 ;
197 [label="Husband_Occupation <= 1.5\ngini = 0.32\nsamples = 5\nvalue = [4, 1]\nclass = No"] ;
196 -> 197 ;
198 [label="gini = 0.5\nsamples = 2\nvalue = [1, 1]\nclass = No"] ;
197 -> 198 ;
199 [label="gini = 0.0\nsamples = 3\nvalue = [3, 0]\nclass = No"] ;
197 -> 199 ;
200 [label="gini = 0.0\nsamples = 1\nvalue = [0, 1]\nclass = Yes"] ;
196 -> 200 ;
201 [label="gini = 0.0\nsamples = 3\nvalue = [3, 0]\nclass = No"] ;
195 -> 201 ;
202 [label="gini = 0.0\nsamples = 1\nvalue = [0, 1]\nclass = Yes"] ;
192 -> 202 ;
203 [label="Husband_education <= 0.5\ngini = 0.39\nsamples = 192\nvalue = [141, 51]\nclass = No"] ;
83 -> 203 ;
204 [label="Husband_Occupation <= 3.5\ngini = 0.469\nsamples = 8\nvalue = [3, 5]\nclass = Yes"] ;
203 -> 204 ;
205 [label="Wife_age <= 31.5\ngini = 0.408\nsamples = 7\nvalue = [2, 5]\nclass = Yes"] ;
204 -> 205 ;
206 [label="gini = 0.0\nsamples = 3\nvalue = [0, 3]\nclass = Yes"] ;
205 -> 206 ;
207 [label="Media_exposure <= 0.5\ngini = 0.5\nsamples = 4\nvalue = [2, 2]\nclass = No"] ;
205 -> 207 ;
208 [label="gini = 0.0\nsamples = 1\nvalue = [0, 1]\nclass = Yes"] ;
207 -> 208 ;
209 [label="Standard_of_living_index <= 1.0\ngini = 0.444\nsamples = 3\nvalue = [2, 1]\nclass = No"] ;
207 -> 209 ;
210 [label="gini = 0.0\nsamples = 1\nvalue = [1, 0]\nclass = No"] ;
209 -> 210 ;
211 [label="Husband_Occupation <= 2.5\ngini = 0.5\nsamples = 2\nvalue = [1, 1]\nclass = No"] ;
209 -> 211 ;
212 [label="gini = 0.0\nsamples = 1\nvalue = [0, 1]\nclass = Yes"] ;
211 -> 212 ;
213 [label="gini = 0.0\nsamples = 1\nvalue = [1, 0]\nclass = No"] ;
211 -> 213 ;
214 [label="gini = 0.0\nsamples = 1\nvalue = [1, 0]\nclass = No"] ;
204 -> 214 ;
215 [label="Husband_Occupation <= 2.5\ngini = 0.375\nsamples = 184\nvalue = [138, 46]\nclass = No"] ;
203 -> 215 ;
216 [label="Wife_age <= 35.5\ngini = 0.442\nsamples = 82\nvalue = [55, 27]\nclass = No"] ;
215 -> 216 ;
217 [label="No_of_children_born <= 7.5\ngini = 0.421\nsamples = 73\nvalue = [51, 22]\nclass = No"] ;
216 -> 217 ;
218 [label="Wife_age <= 32.5\ngini = 0.399\nsamples = 69\nvalue = [50, 19]\nclass = No"] ;
217 -> 218 ;
219 [label="Wife_education <= 0.5\ngini = 0.435\nsamples = 47\nvalue = [32, 15]\nclass = No"] ;
218 -> 219 ;
220 [label="Wife_age <= 28.5\ngini = 0.375\nsamples = 4\nvalue = [1, 3]\nclass = Yes"] ;
219 -> 220 ;
221 [label="Wife_Working <= 0.5\ngini = 0.5\nsamples = 2\nvalue = [1, 1]\nclass = No"] ;
220 -> 221 ;
222 [label="gini = 0.0\nsamples = 1\nvalue = [1, 0]\nclass = No"] ;
221 -> 222 ;
223 [label="gini = 0.0\nsamples = 1\nvalue = [0, 1]\nclass = Yes"] ;
221 -> 223 ;
224 [label="gini = 0.0\nsamples = 2\nvalue = [0, 2]\nclass = Yes"] ;
220 -> 224 ;
225 [label="Wife_age <= 30.5\ngini = 0.402\nsamples = 43\nvalue = [31, 12]\nclass = No"] ;
219 -> 225 ;
226 [label="Husband_education <= 2.5\ngini = 0.32\nsamples = 25\nvalue = [20, 5]\nclass = No"] ;
225 -> 226 ;
227 [label="gini = 0.0\nsamples = 10\nvalue = [10, 0]\nclass = No"] ;
226 -> 227 ;
228 [label="Standard_of_living_index <= 0.5\ngini = 0.444\nsamples = 15\nvalue = [10, 5]\nclass = No"] ;
226 -> 228 ;
229 [label="gini = 0.0\nsamples = 1\nvalue = [0, 1]\nclass = Yes"] ;
228 -> 229 ;
230 [label="Husband_Occupation <= 1.5\ngini = 0.408\nsamples = 14\nvalue = [10, 4]\nclass = No"] ;
228 -> 230 ;
231 [label="No_of_children_born <= 3.5\ngini = 0.48\nsamples = 10\nvalue = [6, 4]\nclass = No"] ;
230 -> 231 ;
232 [label="Wife_age <= 29.5\ngini = 0.32\nsamples = 5\nvalue = [4, 1]\nclass = No"] ;
231 -> 232 ;
233 [label="No_of_children_born <= 2.5\ngini = 0.444\nsamples = 3\nvalue = [2, 1]\nclass = No"] ;
232 -> 233 ;
234 [label="Standard_of_living_index <= 2.5\ngini = 0.5\nsamples = 2\nvalue = [1, 1]\nclass = No"] ;
233 -> 234 ;
235 [label="gini = 0.0\nsamples = 1\nvalue = [0, 1]\nclass = Yes"] ;
234 -> 235 ;
236 [label="gini = 0.0\nsamples = 1\nvalue = [1, 0]\nclass = No"] ;
234 -> 236 ;
237 [label="gini = 0.0\nsamples = 1\nvalue = [1, 0]\nclass = No"] ;
233 -> 237 ;
238 [label="gini = 0.0\nsamples = 2\nvalue = [2, 0]\nclass = No"] ;
232 -> 238 ;
239 [label="Standard_of_living_index <= 2.5\ngini = 0.48\nsamples = 5\nvalue = [2, 3]\nclass = Yes"] ;
231 -> 239 ;
240 [label="Wife_Working <= 0.5\ngini = 0.444\nsamples = 3\nvalue = [2, 1]\nclass = No"] ;
239 -> 240 ;
241 [label="gini = 0.0\nsamples = 1\nvalue = [1, 0]\nclass = No"] ;
240 -> 241 ;
242 [label="gini = 0.5\nsamples = 2\nvalue = [1, 1]\nclass = No"] ;
240 -> 242 ;
243 [label="gini = 0.0\nsamples = 2\nvalue = [0, 2]\nclass = Yes"] ;
239 -> 243 ;
244 [label="gini = 0.0\nsamples = 4\nvalue = [4, 0]\nclass = No"] ;
230 -> 244 ;
245 [label="Standard_of_living_index <= 0.5\ngini = 0.475\nsamples = 18\nvalue = [11, 7]\nclass = No"] ;
225 -> 245 ;
246 [label="gini = 0.0\nsamples = 2\nvalue = [2, 0]\nclass = No"] ;
245 -> 246 ;
247 [label="Husband_education <= 1.5\ngini = 0.492\nsamples = 16\nvalue = [9, 7]\nclass = No"] ;
245 -> 247 ;
248 [label="No_of_children_born <= 4.5\ngini = 0.444\nsamples = 3\nvalue = [1, 2]\nclass = Yes"] ;
247 -> 248 ;
249 [label="gini = 0.0\nsamples = 2\nvalue = [0, 2]\nclass = Yes"] ;
248 -> 249 ;
250 [label="gini = 0.0\nsamples = 1\nvalue = [1, 0]\nclass = No"] ;
248 -> 250 ;
251 [label="Standard_of_living_index <= 1.5\ngini = 0.473\nsamples = 13\nvalue = [8, 5]\nclass = No"] ;
247 -> 251 ;
252 [label="gini = 0.0\nsamples = 2\nvalue = [2, 0]\nclass = No"] ;
251 -> 252 ;
253 [label="Husband_Occupation <= 1.5\ngini = 0.496\nsamples = 11\nvalue = [6, 5]\nclass = No"] ;
251 -> 253 ;
254 [label="Wife_religion <= 0.5\ngini = 0.375\nsamples = 4\nvalue = [3, 1]\nclass = No"] ;
253 -> 254 ;
255 [label="gini = 0.0\nsamples = 2\nvalue = [2, 0]\nclass = No"] ;
254 -> 255 ;
256 [label="Wife_age <= 31.5\ngini = 0.5\nsamples = 2\nvalue = [1, 1]\nclass = No"] ;
254 -> 256 ;
257 [label="gini = 0.0\nsamples = 1\nvalue = [1, 0]\nclass = No"] ;
256 -> 257 ;
258 [label="gini = 0.0\nsamples = 1\nvalue = [0, 1]\nclass = Yes"] ;
256 -> 258 ;
259 [label="Wife_religion <= 0.5\ngini = 0.49\nsamples = 7\nvalue = [3, 4]\nclass = Yes"] ;
253 -> 259 ;
260 [label="gini = 0.0\nsamples = 1\nvalue = [0, 1]\nclass = Yes"] ;
259 -> 260 ;
261 [label="No_of_children_born <= 6.0\ngini = 0.5\nsamples = 6\nvalue = [3, 3]\nclass = No"] ;
259 -> 261 ;
262 [label="Wife_age <= 31.5\ngini = 0.48\nsamples = 5\nvalue = [3, 2]\nclass = No"] ;
261 -> 262 ;
263 [label="gini = 0.0\nsamples = 1\nvalue = [0, 1]\nclass = Yes"] ;
262 -> 263 ;
264 [label="Husband_education <= 2.5\ngini = 0.375\nsamples = 4\nvalue = [3, 1]\nclass = No"] ;
262 -> 264 ;
265 [label="gini = 0.0\nsamples = 2\nvalue = [2, 0]\nclass = No"] ;
264 -> 265 ;
266 [label="Wife_Working <= 0.5\ngini = 0.5\nsamples = 2\nvalue = [1, 1]\nclass = No"] ;
264 -> 266 ;
267 [label="gini = 0.0\nsamples = 1\nvalue = [0, 1]\nclass = Yes"] ;
266 -> 267 ;
268 [label="gini = 0.0\nsamples = 1\nvalue = [1, 0]\nclass = No"] ;
266 -> 268 ;
269 [label="gini = 0.0\nsamples = 1\nvalue = [0, 1]\nclass = Yes"] ;
261 -> 269 ;
270 [label="Wife_Working <= 0.5\ngini = 0.298\nsamples = 22\nvalue = [18, 4]\nclass = No"] ;
218 -> 270 ;
271 [label="gini = 0.0\nsamples = 12\nvalue = [12, 0]\nclass = No"] ;
270 -> 271 ;
272 [label="Media_exposure <= 0.5\ngini = 0.48\nsamples = 10\nvalue = [6, 4]\nclass = No"] ;
270 -> 272 ;
273 [label="gini = 0.0\nsamples = 3\nvalue = [3, 0]\nclass = No"] ;
272 -> 273 ;
274 [label="Wife_age <= 34.0\ngini = 0.49\nsamples = 7\nvalue = [3, 4]\nclass = Yes"] ;
272 -> 274 ;
275 [label="Wife_religion <= 0.5\ngini = 0.375\nsamples = 4\nvalue = [3, 1]\nclass = No"] ;
274 -> 275 ;
276 [label="gini = 0.0\nsamples = 1\nvalue = [0, 1]\nclass = Yes"] ;
275 -> 276 ;
277 [label="gini = 0.0\nsamples = 3\nvalue = [3, 0]\nclass = No"] ;
275 -> 277 ;
278 [label="gini = 0.0\nsamples = 3\nvalue = [0, 3]\nclass = Yes"] ;
274 -> 278 ;
279 [label="Wife_Working <= 0.5\ngini = 0.375\nsamples = 4\nvalue = [1, 3]\nclass = Yes"] ;
217 -> 279 ;
280 [label="Wife_age <= 32.5\ngini = 0.5\nsamples = 2\nvalue = [1, 1]\nclass = No"] ;
279 -> 280 ;
281 [label="gini = 0.0\nsamples = 1\nvalue = [0, 1]\nclass = Yes"] ;
280 -> 281 ;
282 [label="gini = 0.0\nsamples = 1\nvalue = [1, 0]\nclass = No"] ;
280 -> 282 ;
283 [label="gini = 0.0\nsamples = 2\nvalue = [0, 2]\nclass = Yes"] ;
279 -> 283 ;
284 [label="Husband_Occupation <= 1.5\ngini = 0.494\nsamples = 9\nvalue = [4, 5]\nclass = Yes"] ;
216 -> 284 ;
285 [label="gini = 0.0\nsamples = 3\nvalue = [3, 0]\nclass = No"] ;
284 -> 285 ;
286 [label="Wife_religion <= 0.5\ngini = 0.278\nsamples = 6\nvalue = [1, 5]\nclass = Yes"] ;
284 -> 286 ;
287 [label="No_of_children_born <= 3.5\ngini = 0.5\nsamples = 2\nvalue = [1, 1]\nclass = No"] ;
286 -> 287 ;
288 [label="gini = 0.0\nsamples = 1\nvalue = [0, 1]\nclass = Yes"] ;
287 -> 288 ;
289 [label="gini = 0.0\nsamples = 1\nvalue = [1, 0]\nclass = No"] ;
287 -> 289 ;
290 [label="gini = 0.0\nsamples = 4\nvalue = [0, 4]\nclass = Yes"] ;
286 -> 290 ;
291 [label="Media_exposure <= 0.5\ngini = 0.303\nsamples = 102\nvalue = [83, 19]\nclass = No"] ;
215 -> 291 ;
292 [label="No_of_children_born <= 5.5\ngini = 0.486\nsamples = 12\nvalue = [7, 5]\nclass = No"] ;
291 -> 292 ;
293 [label="No_of_children_born <= 2.5\ngini = 0.42\nsamples = 10\nvalue = [7, 3]\nclass = No"] ;
292 -> 293 ;
294 [label="gini = 0.0\nsamples = 1\nvalue = [0, 1]\nclass = Yes"] ;
293 -> 294 ;
295 [label="Wife_age <= 35.5\ngini = 0.346\nsamples = 9\nvalue = [7, 2]\nclass = No"] ;
293 -> 295 ;
296 [label="Wife_education <= 1.5\ngini = 0.219\nsamples = 8\nvalue = [7, 1]\nclass = No"] ;
295 -> 296 ;
297 [label="gini = 0.0\nsamples = 6\nvalue = [6, 0]\nclass = No"] ;
296 -> 297 ;
298 [label="Wife_religion <= 0.5\ngini = 0.5\nsamples = 2\nvalue = [1, 1]\nclass = No"] ;
296 -> 298 ;
299 [label="gini = 0.0\nsamples = 1\nvalue = [0, 1]\nclass = Yes"] ;
298 -> 299 ;
300 [label="gini = 0.0\nsamples = 1\nvalue = [1, 0]\nclass = No"] ;
298 -> 300 ;
301 [label="gini = 0.0\nsamples = 1\nvalue = [0, 1]\nclass = Yes"] ;
295 -> 301 ;
302 [label="gini = 0.0\nsamples = 2\nvalue = [0, 2]\nclass = Yes"] ;
292 -> 302 ;
303 [label="No_of_children_born <= 2.5\ngini = 0.263\nsamples = 90\nvalue = [76, 14]\nclass = No"] ;
291 -> 303 ;
304 [label="Husband_education <= 2.5\ngini = 0.415\nsamples = 17\nvalue = [12, 5]\nclass = No"] ;
303 -> 304 ;
305 [label="Standard_of_living_index <= 0.5\ngini = 0.198\nsamples = 9\nvalue = [8, 1]\nclass = No"] ;
304 -> 305 ;
306 [label="Wife_education <= 1.5\ngini = 0.5\nsamples = 2\nvalue = [1, 1]\nclass = No"] ;
305 -> 306 ;
307 [label="gini = 0.0\nsamples = 1\nvalue = [0, 1]\nclass = Yes"] ;
306 -> 307 ;
308 [label="gini = 0.0\nsamples = 1\nvalue = [1, 0]\nclass = No"] ;
306 -> 308 ;
309 [label="gini = 0.0\nsamples = 7\nvalue = [7, 0]\nclass = No"] ;
305 -> 309 ;
310 [label="Standard_of_living_index <= 1.5\ngini = 0.5\nsamples = 8\nvalue = [4, 4]\nclass = No"] ;
304 -> 310 ;
311 [label="gini = 0.0\nsamples = 2\nvalue = [2, 0]\nclass = No"] ;
310 -> 311 ;
312 [label="Wife_age <= 28.5\ngini = 0.444\nsamples = 6\nvalue = [2, 4]\nclass = Yes"] ;
310 -> 312 ;
313 [label="gini = 0.0\nsamples = 1\nvalue = [1, 0]\nclass = No"] ;
312 -> 313 ;
314 [label="Wife_age <= 31.5\ngini = 0.32\nsamples = 5\nvalue = [1, 4]\nclass = Yes"] ;
312 -> 314 ;
315 [label="gini = 0.0\nsamples = 3\nvalue = [0, 3]\nclass = Yes"] ;
314 -> 315 ;
316 [label="Wife_education <= 1.5\ngini = 0.5\nsamples = 2\nvalue = [1, 1]\nclass = No"] ;
314 -> 316 ;
317 [label="gini = 0.0\nsamples = 1\nvalue = [0, 1]\nclass = Yes"] ;
316 -> 317 ;
318 [label="gini = 0.0\nsamples = 1\nvalue = [1, 0]\nclass = No"] ;
316 -> 318 ;
319 [label="Wife_Working <= 0.5\ngini = 0.216\nsamples = 73\nvalue = [64, 9]\nclass = No"] ;
303 -> 319 ;
320 [label="No_of_children_born <= 7.5\ngini = 0.158\nsamples = 58\nvalue = [53, 5]\nclass = No"] ;
319 -> 320 ;
321 [label="Wife_age <= 28.5\ngini = 0.107\nsamples = 53\nvalue = [50, 3]\nclass = No"] ;
320 -> 321 ;
322 [label="No_of_children_born <= 4.5\ngini = 0.32\nsamples = 5\nvalue = [4, 1]\nclass = No"] ;
321 -> 322 ;
323 [label="gini = 0.0\nsamples = 4\nvalue = [4, 0]\nclass = No"] ;
322 -> 323 ;
324 [label="gini = 0.0\nsamples = 1\nvalue = [0, 1]\nclass = Yes"] ;
322 -> 324 ;
325 [label="No_of_children_born <= 4.5\ngini = 0.08\nsamples = 48\nvalue = [46, 2]\nclass = No"] ;
321 -> 325 ;
326 [label="Husband_education <= 1.5\ngini = 0.133\nsamples = 28\nvalue = [26, 2]\nclass = No"] ;
325 -> 326 ;
327 [label="Wife_age <= 31.5\ngini = 0.375\nsamples = 4\nvalue = [3, 1]\nclass = No"] ;
326 -> 327 ;
328 [label="gini = 0.5\nsamples = 2\nvalue = [1, 1]\nclass = No"] ;
327 -> 328 ;
329 [label="gini = 0.0\nsamples = 2\nvalue = [2, 0]\nclass = No"] ;
327 -> 329 ;
330 [label="Standard_of_living_index <= 2.5\ngini = 0.08\nsamples = 24\nvalue = [23, 1]\nclass = No"] ;
326 -> 330 ;
331 [label="gini = 0.0\nsamples = 19\nvalue = [19, 0]\nclass = No"] ;
330 -> 331 ;
332 [label="Wife_age <= 32.5\ngini = 0.32\nsamples = 5\nvalue = [4, 1]\nclass = No"] ;
330 -> 332 ;
333 [label="gini = 0.0\nsamples = 4\nvalue = [4, 0]\nclass = No"] ;
332 -> 333 ;
334 [label="gini = 0.0\nsamples = 1\nvalue = [0, 1]\nclass = Yes"] ;
332 -> 334 ;
335 [label="gini = 0.0\nsamples = 20\nvalue = [20, 0]\nclass = No"] ;
325 -> 335 ;
336 [label="Wife_age <= 34.0\ngini = 0.48\nsamples = 5\nvalue = [3, 2]\nclass = No"] ;
320 -> 336 ;
337 [label="gini = 0.0\nsamples = 3\nvalue = [3, 0]\nclass = No"] ;
336 -> 337 ;
338 [label="gini = 0.0\nsamples = 2\nvalue = [0, 2]\nclass = Yes"] ;
336 -> 338 ;
339 [label="Standard_of_living_index <= 1.5\ngini = 0.391\nsamples = 15\nvalue = [11, 4]\nclass = No"] ;
319 -> 339 ;
340 [label="Wife_age <= 29.5\ngini = 0.5\nsamples = 6\nvalue = [3, 3]\nclass = No"] ;
339 -> 340 ;
341 [label="gini = 0.0\nsamples = 1\nvalue = [1, 0]\nclass = No"] ;
340 -> 341 ;
342 [label="No_of_children_born <= 3.5\ngini = 0.48\nsamples = 5\nvalue = [2, 3]\nclass = Yes"] ;
340 -> 342 ;
343 [label="gini = 0.0\nsamples = 2\nvalue = [0, 2]\nclass = Yes"] ;
342 -> 343 ;
344 [label="Wife_education <= 1.5\ngini = 0.444\nsamples = 3\nvalue = [2, 1]\nclass = No"] ;
342 -> 344 ;
345 [label="Wife_age <= 31.0\ngini = 0.5\nsamples = 2\nvalue = [1, 1]\nclass = No"] ;
344 -> 345 ;
346 [label="gini = 0.0\nsamples = 1\nvalue = [0, 1]\nclass = Yes"] ;
345 -> 346 ;
347 [label="gini = 0.0\nsamples = 1\nvalue = [1, 0]\nclass = No"] ;
345 -> 347 ;
348 [label="gini = 0.0\nsamples = 1\nvalue = [1, 0]\nclass = No"] ;
344 -> 348 ;
349 [label="Husband_education <= 2.5\ngini = 0.198\nsamples = 9\nvalue = [8, 1]\nclass = No"] ;
339 -> 349 ;
350 [label="gini = 0.0\nsamples = 6\nvalue = [6, 0]\nclass = No"] ;
349 -> 350 ;
351 [label="Wife_religion <= 0.5\ngini = 0.444\nsamples = 3\nvalue = [2, 1]\nclass = No"] ;
349 -> 351 ;
352 [label="gini = 0.0\nsamples = 2\nvalue = [2, 0]\nclass = No"] ;
351 -> 352 ;
353 [label="gini = 0.0\nsamples = 1\nvalue = [0, 1]\nclass = Yes"] ;
351 -> 353 ;
354 [label="No_of_children_born <= 1.5\ngini = 0.459\nsamples = 73\nvalue = [26, 47]\nclass = Yes"] ;
10 -> 354 ;
355 [label="gini = 0.0\nsamples = 10\nvalue = [0, 10]\nclass = Yes"] ;
354 -> 355 ;
356 [label="Husband_education <= 1.5\ngini = 0.485\nsamples = 63\nvalue = [26, 37]\nclass = Yes"] ;
354 -> 356 ;
357 [label="Wife_education <= 0.5\ngini = 0.231\nsamples = 15\nvalue = [2, 13]\nclass = Yes"] ;
356 -> 357 ;
358 [label="Wife_age <= 39.5\ngini = 0.444\nsamples = 3\nvalue = [1, 2]\nclass = Yes"] ;
357 -> 358 ;
359 [label="gini = 0.0\nsamples = 2\nvalue = [0, 2]\nclass = Yes"] ;
358 -> 359 ;
360 [label="gini = 0.0\nsamples = 1\nvalue = [1, 0]\nclass = No"] ;
358 -> 360 ;
361 [label="Wife_age <= 38.5\ngini = 0.153\nsamples = 12\nvalue = [1, 11]\nclass = Yes"] ;
357 -> 361 ;
362 [label="Husband_Occupation <= 2.5\ngini = 0.375\nsamples = 4\nvalue = [1, 3]\nclass = Yes"] ;
361 -> 362 ;
363 [label="Wife_age <= 37.5\ngini = 0.5\nsamples = 2\nvalue = [1, 1]\nclass = No"] ;
362 -> 363 ;
364 [label="gini = 0.0\nsamples = 1\nvalue = [0, 1]\nclass = Yes"] ;
363 -> 364 ;
365 [label="gini = 0.0\nsamples = 1\nvalue = [1, 0]\nclass = No"] ;
363 -> 365 ;
366 [label="gini = 0.0\nsamples = 2\nvalue = [0, 2]\nclass = Yes"] ;
362 -> 366 ;
367 [label="gini = 0.0\nsamples = 8\nvalue = [0, 8]\nclass = Yes"] ;
361 -> 367 ;
368 [label="Husband_Occupation <= 1.5\ngini = 0.5\nsamples = 48\nvalue = [24, 24]\nclass = No"] ;
356 -> 368 ;
369 [label="Wife_age <= 39.5\ngini = 0.426\nsamples = 13\nvalue = [9, 4]\nclass = No"] ;
368 -> 369 ;
370 [label="Standard_of_living_index <= 1.5\ngini = 0.5\nsamples = 8\nvalue = [4, 4]\nclass = No"] ;
369 -> 370 ;
371 [label="gini = 0.0\nsamples = 2\nvalue = [2, 0]\nclass = No"] ;
370 -> 371 ;
372 [label="Wife_Working <= 0.5\ngini = 0.444\nsamples = 6\nvalue = [2, 4]\nclass = Yes"] ;
370 -> 372 ;
373 [label="No_of_children_born <= 2.5\ngini = 0.32\nsamples = 5\nvalue = [1, 4]\nclass = Yes"] ;
372 -> 373 ;
374 [label="Husband_education <= 2.5\ngini = 0.5\nsamples = 2\nvalue = [1, 1]\nclass = No"] ;
373 -> 374 ;
375 [label="gini = 0.0\nsamples = 1\nvalue = [0, 1]\nclass = Yes"] ;
374 -> 375 ;
376 [label="gini = 0.0\nsamples = 1\nvalue = [1, 0]\nclass = No"] ;
374 -> 376 ;
377 [label="gini = 0.0\nsamples = 3\nvalue = [0, 3]\nclass = Yes"] ;
373 -> 377 ;
378 [label="gini = 0.0\nsamples = 1\nvalue = [1, 0]\nclass = No"] ;
372 -> 378 ;
379 [label="gini = 0.0\nsamples = 5\nvalue = [5, 0]\nclass = No"] ;
369 -> 379 ;
380 [label="No_of_children_born <= 3.5\ngini = 0.49\nsamples = 35\nvalue = [15, 20]\nclass = Yes"] ;
368 -> 380 ;
381 [label="Wife_age <= 37.5\ngini = 0.473\nsamples = 13\nvalue = [8, 5]\nclass = No"] ;
380 -> 381 ;
382 [label="gini = 0.0\nsamples = 3\nvalue = [3, 0]\nclass = No"] ;
381 -> 382 ;
383 [label="Husband_Occupation <= 2.5\ngini = 0.5\nsamples = 10\nvalue = [5, 5]\nclass = No"] ;
381 -> 383 ;
384 [label="No_of_children_born <= 2.5\ngini = 0.444\nsamples = 6\nvalue = [2, 4]\nclass = Yes"] ;
383 -> 384 ;
385 [label="gini = 0.0\nsamples = 2\nvalue = [0, 2]\nclass = Yes"] ;
384 -> 385 ;
386 [label="Wife_education <= 0.5\ngini = 0.5\nsamples = 4\nvalue = [2, 2]\nclass = No"] ;
384 -> 386 ;
387 [label="gini = 0.0\nsamples = 1\nvalue = [0, 1]\nclass = Yes"] ;
386 -> 387 ;
388 [label="Wife_religion <= 0.5\ngini = 0.444\nsamples = 3\nvalue = [2, 1]\nclass = No"] ;
386 -> 388 ;
389 [label="gini = 0.5\nsamples = 2\nvalue = [1, 1]\nclass = No"] ;
388 -> 389 ;
390 [label="gini = 0.0\nsamples = 1\nvalue = [1, 0]\nclass = No"] ;
388 -> 390 ;
391 [label="Husband_education <= 2.5\ngini = 0.375\nsamples = 4\nvalue = [3, 1]\nclass = No"] ;
383 -> 391 ;
392 [label="No_of_children_born <= 2.5\ngini = 0.5\nsamples = 2\nvalue = [1, 1]\nclass = No"] ;
391 -> 392 ;
393 [label="gini = 0.0\nsamples = 1\nvalue = [1, 0]\nclass = No"] ;
392 -> 393 ;
394 [label="gini = 0.0\nsamples = 1\nvalue = [0, 1]\nclass = Yes"] ;
392 -> 394 ;
395 [label="gini = 0.0\nsamples = 2\nvalue = [2, 0]\nclass = No"] ;
391 -> 395 ;
396 [label="Husband_Occupation <= 3.5\ngini = 0.434\nsamples = 22\nvalue = [7, 15]\nclass = Yes"] ;
380 -> 396 ;
397 [label="No_of_children_born <= 4.5\ngini = 0.408\nsamples = 21\nvalue = [6, 15]\nclass = Yes"] ;
396 -> 397 ;
398 [label="gini = 0.0\nsamples = 3\nvalue = [0, 3]\nclass = Yes"] ;
397 -> 398 ;
399 [label="No_of_children_born <= 9.5\ngini = 0.444\nsamples = 18\nvalue = [6, 12]\nclass = Yes"] ;
397 -> 399 ;
400 [label="No_of_children_born <= 8.5\ngini = 0.469\nsamples = 16\nvalue = [6, 10]\nclass = Yes"] ;
399 -> 400 ;
401 [label="Wife_age <= 37.5\ngini = 0.408\nsamples = 14\nvalue = [4, 10]\nclass = Yes"] ;
400 -> 401 ;
402 [label="gini = 0.0\nsamples = 3\nvalue = [0, 3]\nclass = Yes"] ;
401 -> 402 ;
403 [label="No_of_children_born <= 7.5\ngini = 0.463\nsamples = 11\nvalue = [4, 7]\nclass = Yes"] ;
401 -> 403 ;
404 [label="No_of_children_born <= 6.5\ngini = 0.494\nsamples = 9\nvalue = [4, 5]\nclass = Yes"] ;
403 -> 404 ;
405 [label="Wife_age <= 38.5\ngini = 0.408\nsamples = 7\nvalue = [2, 5]\nclass = Yes"] ;
404 -> 405 ;
406 [label="gini = 0.0\nsamples = 3\nvalue = [0, 3]\nclass = Yes"] ;
405 -> 406 ;
407 [label="No_of_children_born <= 5.5\ngini = 0.5\nsamples = 4\nvalue = [2, 2]\nclass = No"] ;
405 -> 407 ;
408 [label="Wife_age <= 40.5\ngini = 0.444\nsamples = 3\nvalue = [2, 1]\nclass = No"] ;
407 -> 408 ;
409 [label="gini = 0.0\nsamples = 2\nvalue = [2, 0]\nclass = No"] ;
408 -> 409 ;
410 [label="gini = 0.0\nsamples = 1\nvalue = [0, 1]\nclass = Yes"] ;
408 -> 410 ;
411 [label="gini = 0.0\nsamples = 1\nvalue = [0, 1]\nclass = Yes"] ;
407 -> 411 ;
412 [label="gini = 0.0\nsamples = 2\nvalue = [2, 0]\nclass = No"] ;
404 -> 412 ;
413 [label="gini = 0.0\nsamples = 2\nvalue = [0, 2]\nclass = Yes"] ;
403 -> 413 ;
414 [label="gini = 0.0\nsamples = 2\nvalue = [2, 0]\nclass = No"] ;
400 -> 414 ;
415 [label="gini = 0.0\nsamples = 2\nvalue = [0, 2]\nclass = Yes"] ;
399 -> 415 ;
416 [label="gini = 0.0\nsamples = 1\nvalue = [1, 0]\nclass = No"] ;
396 -> 416 ;
417 [label="No_of_children_born <= 1.5\ngini = 0.335\nsamples = 258\nvalue = [203, 55]\nclass = No"] ;
9 -> 417 ;
418 [label="Husband_Occupation <= 1.5\ngini = 0.463\nsamples = 66\nvalue = [42, 24]\nclass = No"] ;
417 -> 418 ;
419 [label="Wife_age <= 31.5\ngini = 0.493\nsamples = 25\nvalue = [11, 14]\nclass = Yes"] ;
418 -> 419 ;
420 [label="Wife_age <= 24.5\ngini = 0.499\nsamples = 21\nvalue = [11, 10]\nclass = No"] ;
419 -> 420 ;
421 [label="Wife_age <= 20.5\ngini = 0.408\nsamples = 7\nvalue = [5, 2]\nclass = No"] ;
420 -> 421 ;
422 [label="gini = 0.0\nsamples = 1\nvalue = [0, 1]\nclass = Yes"] ;
421 -> 422 ;
423 [label="Wife_Working <= 0.5\ngini = 0.278\nsamples = 6\nvalue = [5, 1]\nclass = No"] ;
421 -> 423 ;
424 [label="gini = 0.0\nsamples = 4\nvalue = [4, 0]\nclass = No"] ;
423 -> 424 ;
425 [label="Standard_of_living_index <= 2.5\ngini = 0.5\nsamples = 2\nvalue = [1, 1]\nclass = No"] ;
423 -> 425 ;
426 [label="gini = 0.0\nsamples = 1\nvalue = [0, 1]\nclass = Yes"] ;
425 -> 426 ;
427 [label="gini = 0.0\nsamples = 1\nvalue = [1, 0]\nclass = No"] ;
425 -> 427 ;
428 [label="Wife_age <= 30.5\ngini = 0.49\nsamples = 14\nvalue = [6, 8]\nclass = Yes"] ;
420 -> 428 ;
429 [label="Standard_of_living_index <= 1.5\ngini = 0.473\nsamples = 13\nvalue = [5, 8]\nclass = Yes"] ;
428 -> 429 ;
430 [label="gini = 0.0\nsamples = 1\nvalue = [0, 1]\nclass = Yes"] ;
429 -> 430 ;
431 [label="Standard_of_living_index <= 2.5\ngini = 0.486\nsamples = 12\nvalue = [5, 7]\nclass = Yes"] ;
429 -> 431 ;
432 [label="Wife_Working <= 0.5\ngini = 0.444\nsamples = 6\nvalue = [2, 4]\nclass = Yes"] ;
431 -> 432 ;
433 [label="Wife_age <= 27.0\ngini = 0.32\nsamples = 5\nvalue = [1, 4]\nclass = Yes"] ;
432 -> 433 ;
434 [label="gini = 0.0\nsamples = 2\nvalue = [0, 2]\nclass = Yes"] ;
433 -> 434 ;
435 [label="Wife_religion <= 0.5\ngini = 0.444\nsamples = 3\nvalue = [1, 2]\nclass = Yes"] ;
433 -> 435 ;
436 [label="gini = 0.0\nsamples = 1\nvalue = [0, 1]\nclass = Yes"] ;
435 -> 436 ;
437 [label="Wife_age <= 28.5\ngini = 0.5\nsamples = 2\nvalue = [1, 1]\nclass = No"] ;
435 -> 437 ;
438 [label="gini = 0.0\nsamples = 1\nvalue = [1, 0]\nclass = No"] ;
437 -> 438 ;
439 [label="gini = 0.0\nsamples = 1\nvalue = [0, 1]\nclass = Yes"] ;
437 -> 439 ;
440 [label="gini = 0.0\nsamples = 1\nvalue = [1, 0]\nclass = No"] ;
432 -> 440 ;
441 [label="Wife_religion <= 0.5\ngini = 0.5\nsamples = 6\nvalue = [3, 3]\nclass = No"] ;
431 -> 441 ;
442 [label="gini = 0.0\nsamples = 1\nvalue = [1, 0]\nclass = No"] ;
441 -> 442 ;
443 [label="Wife_Working <= 0.5\ngini = 0.48\nsamples = 5\nvalue = [2, 3]\nclass = Yes"] ;
441 -> 443 ;
444 [label="Wife_age <= 27.5\ngini = 0.444\nsamples = 3\nvalue = [2, 1]\nclass = No"] ;
443 -> 444 ;
445 [label="gini = 0.5\nsamples = 2\nvalue = [1, 1]\nclass = No"] ;
444 -> 445 ;
446 [label="gini = 0.0\nsamples = 1\nvalue = [1, 0]\nclass = No"] ;
444 -> 446 ;
447 [label="gini = 0.0\nsamples = 2\nvalue = [0, 2]\nclass = Yes"] ;
443 -> 447 ;
448 [label="gini = 0.0\nsamples = 1\nvalue = [1, 0]\nclass = No"] ;
428 -> 448 ;
449 [label="gini = 0.0\nsamples = 4\nvalue = [0, 4]\nclass = Yes"] ;
419 -> 449 ;
450 [label="Wife_religion <= 0.5\ngini = 0.369\nsamples = 41\nvalue = [31, 10]\nclass = No"] ;
418 -> 450 ;
451 [label="Wife_age <= 32.5\ngini = 0.496\nsamples = 11\nvalue = [6, 5]\nclass = No"] ;
450 -> 451 ;
452 [label="Wife_age <= 24.5\ngini = 0.444\nsamples = 9\nvalue = [6, 3]\nclass = No"] ;
451 -> 452 ;
453 [label="gini = 0.0\nsamples = 2\nvalue = [2, 0]\nclass = No"] ;
452 -> 453 ;
454 [label="Wife_age <= 29.0\ngini = 0.49\nsamples = 7\nvalue = [4, 3]\nclass = No"] ;
452 -> 454 ;
455 [label="Wife_age <= 26.5\ngini = 0.48\nsamples = 5\nvalue = [2, 3]\nclass = Yes"] ;
454 -> 455 ;
456 [label="Standard_of_living_index <= 2.5\ngini = 0.444\nsamples = 3\nvalue = [2, 1]\nclass = No"] ;
455 -> 456 ;
457 [label="Husband_Occupation <= 2.5\ngini = 0.5\nsamples = 2\nvalue = [1, 1]\nclass = No"] ;
456 -> 457 ;
458 [label="gini = 0.0\nsamples = 1\nvalue = [0, 1]\nclass = Yes"] ;
457 -> 458 ;
459 [label="gini = 0.0\nsamples = 1\nvalue = [1, 0]\nclass = No"] ;
457 -> 459 ;
460 [label="gini = 0.0\nsamples = 1\nvalue = [1, 0]\nclass = No"] ;
456 -> 460 ;
461 [label="gini = 0.0\nsamples = 2\nvalue = [0, 2]\nclass = Yes"] ;
455 -> 461 ;
462 [label="gini = 0.0\nsamples = 2\nvalue = [2, 0]\nclass = No"] ;
454 -> 462 ;
463 [label="gini = 0.0\nsamples = 2\nvalue = [0, 2]\nclass = Yes"] ;
451 -> 463 ;
464 [label="Wife_age <= 25.5\ngini = 0.278\nsamples = 30\nvalue = [25, 5]\nclass = No"] ;
450 -> 464 ;
465 [label="Wife_age <= 24.5\ngini = 0.363\nsamples = 21\nvalue = [16, 5]\nclass = No"] ;
464 -> 465 ;
466 [label="Wife_age <= 22.5\ngini = 0.32\nsamples = 20\nvalue = [16, 4]\nclass = No"] ;
465 -> 466 ;
467 [label="Husband_Occupation <= 2.5\ngini = 0.165\nsamples = 11\nvalue = [10, 1]\nclass = No"] ;
466 -> 467 ;
468 [label="gini = 0.0\nsamples = 8\nvalue = [8, 0]\nclass = No"] ;
467 -> 468 ;
469 [label="Standard_of_living_index <= 2.5\ngini = 0.444\nsamples = 3\nvalue = [2, 1]\nclass = No"] ;
467 -> 469 ;
470 [label="gini = 0.0\nsamples = 2\nvalue = [2, 0]\nclass = No"] ;
469 -> 470 ;
471 [label="gini = 0.0\nsamples = 1\nvalue = [0, 1]\nclass = Yes"] ;
469 -> 471 ;
472 [label="Standard_of_living_index <= 1.5\ngini = 0.444\nsamples = 9\nvalue = [6, 3]\nclass = No"] ;
466 -> 472 ;
473 [label="gini = 0.0\nsamples = 2\nvalue = [2, 0]\nclass = No"] ;
472 -> 473 ;
474 [label="Standard_of_living_index <= 2.5\ngini = 0.49\nsamples = 7\nvalue = [4, 3]\nclass = No"] ;
472 -> 474 ;
475 [label="gini = 0.0\nsamples = 2\nvalue = [0, 2]\nclass = Yes"] ;
474 -> 475 ;
476 [label="Wife_Working <= 0.5\ngini = 0.32\nsamples = 5\nvalue = [4, 1]\nclass = No"] ;
474 -> 476 ;
477 [label="gini = 0.0\nsamples = 3\nvalue = [3, 0]\nclass = No"] ;
476 -> 477 ;
478 [label="Husband_Occupation <= 2.5\ngini = 0.5\nsamples = 2\nvalue = [1, 1]\nclass = No"] ;
476 -> 478 ;
479 [label="gini = 0.0\nsamples = 1\nvalue = [0, 1]\nclass = Yes"] ;
478 -> 479 ;
480 [label="gini = 0.0\nsamples = 1\nvalue = [1, 0]\nclass = No"] ;
478 -> 480 ;
481 [label="gini = 0.0\nsamples = 1\nvalue = [0, 1]\nclass = Yes"] ;
465 -> 481 ;
482 [label="gini = 0.0\nsamples = 9\nvalue = [9, 0]\nclass = No"] ;
464 -> 482 ;
483 [label="Wife_age <= 37.5\ngini = 0.271\nsamples = 192\nvalue = [161, 31]\nclass = No"] ;
417 -> 483 ;
484 [label="Husband_Occupation <= 1.5\ngini = 0.3\nsamples = 158\nvalue = [129, 29]\nclass = No"] ;
483 -> 484 ;
485 [label="Wife_age <= 25.5\ngini = 0.351\nsamples = 75\nvalue = [58, 17]\nclass = No"] ;
484 -> 485 ;
486 [label="gini = 0.0\nsamples = 6\nvalue = [6, 0]\nclass = No"] ;
485 -> 486 ;
487 [label="No_of_children_born <= 3.5\ngini = 0.371\nsamples = 69\nvalue = [52, 17]\nclass = No"] ;
485 -> 487 ;
488 [label="Wife_age <= 32.5\ngini = 0.418\nsamples = 47\nvalue = [33, 14]\nclass = No"] ;
487 -> 488 ;
489 [label="Standard_of_living_index <= 1.5\ngini = 0.337\nsamples = 28\nvalue = [22, 6]\nclass = No"] ;
488 -> 489 ;
490 [label="Media_exposure <= 0.5\ngini = 0.5\nsamples = 2\nvalue = [1, 1]\nclass = No"] ;
489 -> 490 ;
491 [label="gini = 0.0\nsamples = 1\nvalue = [1, 0]\nclass = No"] ;
490 -> 491 ;
492 [label="gini = 0.0\nsamples = 1\nvalue = [0, 1]\nclass = Yes"] ;
490 -> 492 ;
493 [label="Wife_age <= 26.5\ngini = 0.311\nsamples = 26\nvalue = [21, 5]\nclass = No"] ;
489 -> 493 ;
494 [label="Standard_of_living_index <= 2.5\ngini = 0.5\nsamples = 2\nvalue = [1, 1]\nclass = No"] ;
493 -> 494 ;
495 [label="gini = 0.0\nsamples = 1\nvalue = [0, 1]\nclass = Yes"] ;
494 -> 495 ;
496 [label="gini = 0.0\nsamples = 1\nvalue = [1, 0]\nclass = No"] ;
494 -> 496 ;
497 [label="No_of_children_born <= 2.5\ngini = 0.278\nsamples = 24\nvalue = [20, 4]\nclass = No"] ;
493 -> 497 ;
498 [label="Wife_age <= 29.5\ngini = 0.142\nsamples = 13\nvalue = [12, 1]\nclass = No"] ;
497 -> 498 ;
499 [label="gini = 0.0\nsamples = 7\nvalue = [7, 0]\nclass = No"] ;
498 -> 499 ;
500 [label="Wife_religion <= 0.5\ngini = 0.278\nsamples = 6\nvalue = [5, 1]\nclass = No"] ;
498 -> 500 ;
501 [label="gini = 0.0\nsamples = 4\nvalue = [4, 0]\nclass = No"] ;
500 -> 501 ;
502 [label="Wife_age <= 31.0\ngini = 0.5\nsamples = 2\nvalue = [1, 1]\nclass = No"] ;
500 -> 502 ;
503 [label="gini = 0.0\nsamples = 1\nvalue = [0, 1]\nclass = Yes"] ;
502 -> 503 ;
504 [label="gini = 0.0\nsamples = 1\nvalue = [1, 0]\nclass = No"] ;
502 -> 504 ;
505 [label="Wife_age <= 28.5\ngini = 0.397\nsamples = 11\nvalue = [8, 3]\nclass = No"] ;
497 -> 505 ;
506 [label="Standard_of_living_index <= 2.5\ngini = 0.444\nsamples = 3\nvalue = [1, 2]\nclass = Yes"] ;
505 -> 506 ;
507 [label="gini = 0.0\nsamples = 1\nvalue = [1, 0]\nclass = No"] ;
506 -> 507 ;
508 [label="gini = 0.0\nsamples = 2\nvalue = [0, 2]\nclass = Yes"] ;
506 -> 508 ;
509 [label="Wife_age <= 31.5\ngini = 0.219\nsamples = 8\nvalue = [7, 1]\nclass = No"] ;
505 -> 509 ;
510 [label="gini = 0.0\nsamples = 3\nvalue = [3, 0]\nclass = No"] ;
509 -> 510 ;
511 [label="Wife_Working <= 0.5\ngini = 0.32\nsamples = 5\nvalue = [4, 1]\nclass = No"] ;
509 -> 511 ;
512 [label="Wife_religion <= 0.5\ngini = 0.375\nsamples = 4\nvalue = [3, 1]\nclass = No"] ;
511 -> 512 ;
513 [label="gini = 0.0\nsamples = 1\nvalue = [1, 0]\nclass = No"] ;
512 -> 513 ;
514 [label="gini = 0.444\nsamples = 3\nvalue = [2, 1]\nclass = No"] ;
512 -> 514 ;
515 [label="gini = 0.0\nsamples = 1\nvalue = [1, 0]\nclass = No"] ;
511 -> 515 ;
516 [label="Wife_Working <= 0.5\ngini = 0.488\nsamples = 19\nvalue = [11, 8]\nclass = No"] ;
488 -> 516 ;
517 [label="No_of_children_born <= 2.5\ngini = 0.5\nsamples = 14\nvalue = [7, 7]\nclass = No"] ;
516 -> 517 ;
518 [label="Wife_age <= 33.5\ngini = 0.278\nsamples = 6\nvalue = [1, 5]\nclass = Yes"] ;
517 -> 518 ;
519 [label="gini = 0.0\nsamples = 2\nvalue = [0, 2]\nclass = Yes"] ;
518 -> 519 ;
520 [label="Wife_religion <= 0.5\ngini = 0.375\nsamples = 4\nvalue = [1, 3]\nclass = Yes"] ;
518 -> 520 ;
521 [label="gini = 0.0\nsamples = 2\nvalue = [0, 2]\nclass = Yes"] ;
520 -> 521 ;
522 [label="Wife_age <= 35.5\ngini = 0.5\nsamples = 2\nvalue = [1, 1]\nclass = No"] ;
520 -> 522 ;
523 [label="gini = 0.0\nsamples = 1\nvalue = [1, 0]\nclass = No"] ;
522 -> 523 ;
524 [label="gini = 0.0\nsamples = 1\nvalue = [0, 1]\nclass = Yes"] ;
522 -> 524 ;
525 [label="Wife_age <= 35.5\ngini = 0.375\nsamples = 8\nvalue = [6, 2]\nclass = No"] ;
517 -> 525 ;
526 [label="Wife_age <= 34.5\ngini = 0.48\nsamples = 5\nvalue = [3, 2]\nclass = No"] ;
525 -> 526 ;
527 [label="Wife_age <= 33.5\ngini = 0.375\nsamples = 4\nvalue = [3, 1]\nclass = No"] ;
526 -> 527 ;
528 [label="gini = 0.444\nsamples = 3\nvalue = [2, 1]\nclass = No"] ;
527 -> 528 ;
529 [label="gini = 0.0\nsamples = 1\nvalue = [1, 0]\nclass = No"] ;
527 -> 529 ;
530 [label="gini = 0.0\nsamples = 1\nvalue = [0, 1]\nclass = Yes"] ;
526 -> 530 ;
531 [label="gini = 0.0\nsamples = 3\nvalue = [3, 0]\nclass = No"] ;
525 -> 531 ;
532 [label="Standard_of_living_index <= 2.5\ngini = 0.32\nsamples = 5\nvalue = [4, 1]\nclass = No"] ;
516 -> 532 ;
533 [label="No_of_children_born <= 2.5\ngini = 0.5\nsamples = 2\nvalue = [1, 1]\nclass = No"] ;
532 -> 533 ;
534 [label="gini = 0.0\nsamples = 1\nvalue = [1, 0]\nclass = No"] ;
533 -> 534 ;
535 [label="gini = 0.0\nsamples = 1\nvalue = [0, 1]\nclass = Yes"] ;
533 -> 535 ;
536 [label="gini = 0.0\nsamples = 3\nvalue = [3, 0]\nclass = No"] ;
532 -> 536 ;
537 [label="Wife_age <= 29.5\ngini = 0.236\nsamples = 22\nvalue = [19, 3]\nclass = No"] ;
487 -> 537 ;
538 [label="Standard_of_living_index <= 2.5\ngini = 0.5\nsamples = 2\nvalue = [1, 1]\nclass = No"] ;
537 -> 538 ;
539 [label="gini = 0.0\nsamples = 1\nvalue = [1, 0]\nclass = No"] ;
538 -> 539 ;
540 [label="gini = 0.0\nsamples = 1\nvalue = [0, 1]\nclass = Yes"] ;
538 -> 540 ;
541 [label="Standard_of_living_index <= 2.5\ngini = 0.18\nsamples = 20\nvalue = [18, 2]\nclass = No"] ;
537 -> 541 ;
542 [label="Wife_Working <= 0.5\ngini = 0.375\nsamples = 4\nvalue = [3, 1]\nclass = No"] ;
541 -> 542 ;
543 [label="gini = 0.0\nsamples = 2\nvalue = [2, 0]\nclass = No"] ;
542 -> 543 ;
544 [label="No_of_children_born <= 4.5\ngini = 0.5\nsamples = 2\nvalue = [1, 1]\nclass = No"] ;
542 -> 544 ;
545 [label="gini = 0.0\nsamples = 1\nvalue = [0, 1]\nclass = Yes"] ;
544 -> 545 ;
546 [label="gini = 0.0\nsamples = 1\nvalue = [1, 0]\nclass = No"] ;
544 -> 546 ;
547 [label="No_of_children_born <= 4.5\ngini = 0.117\nsamples = 16\nvalue = [15, 1]\nclass = No"] ;
541 -> 547 ;
548 [label="gini = 0.0\nsamples = 8\nvalue = [8, 0]\nclass = No"] ;
547 -> 548 ;
549 [label="Wife_Working <= 0.5\ngini = 0.219\nsamples = 8\nvalue = [7, 1]\nclass = No"] ;
547 -> 549 ;
550 [label="No_of_children_born <= 5.5\ngini = 0.32\nsamples = 5\nvalue = [4, 1]\nclass = No"] ;
549 -> 550 ;
551 [label="Wife_age <= 34.0\ngini = 0.444\nsamples = 3\nvalue = [2, 1]\nclass = No"] ;
550 -> 551 ;
552 [label="gini = 0.0\nsamples = 1\nvalue = [1, 0]\nclass = No"] ;
551 -> 552 ;
553 [label="gini = 0.5\nsamples = 2\nvalue = [1, 1]\nclass = No"] ;
551 -> 553 ;
554 [label="gini = 0.0\nsamples = 2\nvalue = [2, 0]\nclass = No"] ;
550 -> 554 ;
555 [label="gini = 0.0\nsamples = 3\nvalue = [3, 0]\nclass = No"] ;
549 -> 555 ;
556 [label="Standard_of_living_index <= 0.5\ngini = 0.247\nsamples = 83\nvalue = [71, 12]\nclass = No"] ;
484 -> 556 ;
557 [label="Wife_religion <= 0.5\ngini = 0.5\nsamples = 2\nvalue = [1, 1]\nclass = No"] ;
556 -> 557 ;
558 [label="gini = 0.0\nsamples = 1\nvalue = [0, 1]\nclass = Yes"] ;
557 -> 558 ;
559 [label="gini = 0.0\nsamples = 1\nvalue = [1, 0]\nclass = No"] ;
557 -> 559 ;
560 [label="No_of_children_born <= 4.5\ngini = 0.235\nsamples = 81\nvalue = [70, 11]\nclass = No"] ;
556 -> 560 ;
561 [label="Standard_of_living_index <= 2.5\ngini = 0.202\nsamples = 70\nvalue = [62, 8]\nclass = No"] ;
560 -> 561 ;
562 [label="Wife_age <= 34.5\ngini = 0.278\nsamples = 36\nvalue = [30, 6]\nclass = No"] ;
561 -> 562 ;
563 [label="Husband_Occupation <= 2.5\ngini = 0.225\nsamples = 31\nvalue = [27, 4]\nclass = No"] ;
562 -> 563 ;
564 [label="Standard_of_living_index <= 1.5\ngini = 0.397\nsamples = 11\nvalue = [8, 3]\nclass = No"] ;
563 -> 564 ;
565 [label="gini = 0.0\nsamples = 2\nvalue = [2, 0]\nclass = No"] ;
564 -> 565 ;
566 [label="Wife_age <= 31.5\ngini = 0.444\nsamples = 9\nvalue = [6, 3]\nclass = No"] ;
564 -> 566 ;
567 [label="Wife_Working <= 0.5\ngini = 0.5\nsamples = 4\nvalue = [2, 2]\nclass = No"] ;
566 -> 567 ;
568 [label="Husband_education <= 2.5\ngini = 0.444\nsamples = 3\nvalue = [2, 1]\nclass = No"] ;
567 -> 568 ;
569 [label="gini = 0.0\nsamples = 1\nvalue = [0, 1]\nclass = Yes"] ;
568 -> 569 ;
570 [label="gini = 0.0\nsamples = 2\nvalue = [2, 0]\nclass = No"] ;
568 -> 570 ;
571 [label="gini = 0.0\nsamples = 1\nvalue = [0, 1]\nclass = Yes"] ;
567 -> 571 ;
572 [label="No_of_children_born <= 3.0\ngini = 0.32\nsamples = 5\nvalue = [4, 1]\nclass = No"] ;
566 -> 572 ;
573 [label="Wife_Working <= 0.5\ngini = 0.444\nsamples = 3\nvalue = [2, 1]\nclass = No"] ;
572 -> 573 ;
574 [label="gini = 0.5\nsamples = 2\nvalue = [1, 1]\nclass = No"] ;
573 -> 574 ;
575 [label="gini = 0.0\nsamples = 1\nvalue = [1, 0]\nclass = No"] ;
573 -> 575 ;
576 [label="gini = 0.0\nsamples = 2\nvalue = [2, 0]\nclass = No"] ;
572 -> 576 ;
577 [label="Wife_age <= 23.5\ngini = 0.095\nsamples = 20\nvalue = [19, 1]\nclass = No"] ;
563 -> 577 ;
578 [label="Wife_Working <= 0.5\ngini = 0.444\nsamples = 3\nvalue = [2, 1]\nclass = No"] ;
577 -> 578 ;
579 [label="gini = 0.0\nsamples = 2\nvalue = [2, 0]\nclass = No"] ;
578 -> 579 ;
580 [label="gini = 0.0\nsamples = 1\nvalue = [0, 1]\nclass = Yes"] ;
578 -> 580 ;
581 [label="gini = 0.0\nsamples = 17\nvalue = [17, 0]\nclass = No"] ;
577 -> 581 ;
582 [label="No_of_children_born <= 2.5\ngini = 0.48\nsamples = 5\nvalue = [3, 2]\nclass = No"] ;
562 -> 582 ;
583 [label="Wife_age <= 36.5\ngini = 0.444\nsamples = 3\nvalue = [1, 2]\nclass = Yes"] ;
582 -> 583 ;
584 [label="gini = 0.0\nsamples = 2\nvalue = [0, 2]\nclass = Yes"] ;
583 -> 584 ;
585 [label="gini = 0.0\nsamples = 1\nvalue = [1, 0]\nclass = No"] ;
583 -> 585 ;
586 [label="gini = 0.0\nsamples = 2\nvalue = [2, 0]\nclass = No"] ;
582 -> 586 ;
587 [label="Wife_age <= 23.5\ngini = 0.111\nsamples = 34\nvalue = [32, 2]\nclass = No"] ;
561 -> 587 ;
588 [label="Wife_Working <= 0.5\ngini = 0.444\nsamples = 3\nvalue = [2, 1]\nclass = No"] ;
587 -> 588 ;
589 [label="Husband_Occupation <= 2.5\ngini = 0.5\nsamples = 2\nvalue = [1, 1]\nclass = No"] ;
588 -> 589 ;
590 [label="gini = 0.0\nsamples = 1\nvalue = [0, 1]\nclass = Yes"] ;
589 -> 590 ;
591 [label="gini = 0.0\nsamples = 1\nvalue = [1, 0]\nclass = No"] ;
589 -> 591 ;
592 [label="gini = 0.0\nsamples = 1\nvalue = [1, 0]\nclass = No"] ;
588 -> 592 ;
593 [label="Wife_Working <= 0.5\ngini = 0.062\nsamples = 31\nvalue = [30, 1]\nclass = No"] ;
587 -> 593 ;
594 [label="gini = 0.0\nsamples = 22\nvalue = [22, 0]\nclass = No"] ;
593 -> 594 ;
595 [label="Wife_age <= 31.0\ngini = 0.198\nsamples = 9\nvalue = [8, 1]\nclass = No"] ;
593 -> 595 ;
596 [label="Wife_religion <= 0.5\ngini = 0.444\nsamples = 3\nvalue = [2, 1]\nclass = No"] ;
595 -> 596 ;
597 [label="gini = 0.0\nsamples = 2\nvalue = [2, 0]\nclass = No"] ;
596 -> 597 ;
598 [label="gini = 0.0\nsamples = 1\nvalue = [0, 1]\nclass = Yes"] ;
596 -> 598 ;
599 [label="gini = 0.0\nsamples = 6\nvalue = [6, 0]\nclass = No"] ;
595 -> 599 ;
600 [label="Husband_Occupation <= 2.5\ngini = 0.397\nsamples = 11\nvalue = [8, 3]\nclass = No"] ;
560 -> 600 ;
601 [label="gini = 0.0\nsamples = 4\nvalue = [4, 0]\nclass = No"] ;
600 -> 601 ;
602 [label="Wife_age <= 32.5\ngini = 0.49\nsamples = 7\nvalue = [4, 3]\nclass = No"] ;
600 -> 602 ;
603 [label="Wife_age <= 30.0\ngini = 0.32\nsamples = 5\nvalue = [4, 1]\nclass = No"] ;
602 -> 603 ;
604 [label="gini = 0.0\nsamples = 1\nvalue = [0, 1]\nclass = Yes"] ;
603 -> 604 ;
605 [label="gini = 0.0\nsamples = 4\nvalue = [4, 0]\nclass = No"] ;
603 -> 605 ;
606 [label="gini = 0.0\nsamples = 2\nvalue = [0, 2]\nclass = Yes"] ;
602 -> 606 ;
607 [label="Wife_age <= 39.5\ngini = 0.111\nsamples = 34\nvalue = [32, 2]\nclass = No"] ;
483 -> 607 ;
608 [label="gini = 0.0\nsamples = 20\nvalue = [20, 0]\nclass = No"] ;
607 -> 608 ;
609 [label="No_of_children_born <= 2.5\ngini = 0.245\nsamples = 14\nvalue = [12, 2]\nclass = No"] ;
607 -> 609 ;
610 [label="gini = 0.0\nsamples = 1\nvalue = [0, 1]\nclass = Yes"] ;
609 -> 610 ;
611 [label="Husband_Occupation <= 2.5\ngini = 0.142\nsamples = 13\nvalue = [12, 1]\nclass = No"] ;
609 -> 611 ;
612 [label="gini = 0.0\nsamples = 12\nvalue = [12, 0]\nclass = No"] ;
611 -> 612 ;
613 [label="gini = 0.0\nsamples = 1\nvalue = [0, 1]\nclass = Yes"] ;
611 -> 613 ;
614 [label="Wife_education <= 1.5\ngini = 0.456\nsamples = 179\nvalue = [63, 116]\nclass = Yes"] ;
8 -> 614 ;
615 [label="Wife_religion <= 0.5\ngini = 0.26\nsamples = 78\nvalue = [12, 66]\nclass = Yes"] ;
614 -> 615 ;
616 [label="Wife_age <= 46.5\ngini = 0.5\nsamples = 6\nvalue = [3, 3]\nclass = No"] ;
615 -> 616 ;
617 [label="Wife_age <= 43.5\ngini = 0.375\nsamples = 4\nvalue = [3, 1]\nclass = No"] ;
616 -> 617 ;
618 [label="Husband_education <= 2.5\ngini = 0.5\nsamples = 2\nvalue = [1, 1]\nclass = No"] ;
617 -> 618 ;
619 [label="gini = 0.0\nsamples = 1\nvalue = [0, 1]\nclass = Yes"] ;
618 -> 619 ;
620 [label="gini = 0.0\nsamples = 1\nvalue = [1, 0]\nclass = No"] ;
618 -> 620 ;
621 [label="gini = 0.0\nsamples = 2\nvalue = [2, 0]\nclass = No"] ;
617 -> 621 ;
622 [label="gini = 0.0\nsamples = 2\nvalue = [0, 2]\nclass = Yes"] ;
616 -> 622 ;
623 [label="Wife_age <= 44.5\ngini = 0.219\nsamples = 72\nvalue = [9, 63]\nclass = Yes"] ;
615 -> 623 ;
624 [label="Husband_education <= 2.5\ngini = 0.365\nsamples = 25\nvalue = [6, 19]\nclass = Yes"] ;
623 -> 624 ;
625 [label="Husband_Occupation <= 1.5\ngini = 0.198\nsamples = 18\nvalue = [2, 16]\nclass = Yes"] ;
624 -> 625 ;
626 [label="gini = 0.0\nsamples = 1\nvalue = [1, 0]\nclass = No"] ;
625 -> 626 ;
627 [label="Wife_age <= 42.5\ngini = 0.111\nsamples = 17\nvalue = [1, 16]\nclass = Yes"] ;
625 -> 627 ;
628 [label="No_of_children_born <= 8.0\ngini = 0.32\nsamples = 5\nvalue = [1, 4]\nclass = Yes"] ;
627 -> 628 ;
629 [label="Husband_education <= 1.5\ngini = 0.5\nsamples = 2\nvalue = [1, 1]\nclass = No"] ;
628 -> 629 ;
630 [label="gini = 0.0\nsamples = 1\nvalue = [0, 1]\nclass = Yes"] ;
629 -> 630 ;
631 [label="gini = 0.0\nsamples = 1\nvalue = [1, 0]\nclass = No"] ;
629 -> 631 ;
632 [label="gini = 0.0\nsamples = 3\nvalue = [0, 3]\nclass = Yes"] ;
628 -> 632 ;
633 [label="gini = 0.0\nsamples = 12\nvalue = [0, 12]\nclass = Yes"] ;
627 -> 633 ;
634 [label="Wife_age <= 42.5\ngini = 0.49\nsamples = 7\nvalue = [4, 3]\nclass = No"] ;
624 -> 634 ;
635 [label="No_of_children_born <= 2.5\ngini = 0.375\nsamples = 4\nvalue = [1, 3]\nclass = Yes"] ;
634 -> 635 ;
636 [label="gini = 0.0\nsamples = 2\nvalue = [0, 2]\nclass = Yes"] ;
635 -> 636 ;
637 [label="Wife_education <= 0.5\ngini = 0.5\nsamples = 2\nvalue = [1, 1]\nclass = No"] ;
635 -> 637 ;
638 [label="gini = 0.0\nsamples = 1\nvalue = [0, 1]\nclass = Yes"] ;
637 -> 638 ;
639 [label="gini = 0.0\nsamples = 1\nvalue = [1, 0]\nclass = No"] ;
637 -> 639 ;
640 [label="gini = 0.0\nsamples = 3\nvalue = [3, 0]\nclass = No"] ;
634 -> 640 ;
641 [label="Standard_of_living_index <= 2.5\ngini = 0.12\nsamples = 47\nvalue = [3, 44]\nclass = Yes"] ;
623 -> 641 ;
642 [label="No_of_children_born <= 3.5\ngini = 0.059\nsamples = 33\nvalue = [1, 32]\nclass = Yes"] ;
641 -> 642 ;
643 [label="Standard_of_living_index <= 1.5\ngini = 0.198\nsamples = 9\nvalue = [1, 8]\nclass = Yes"] ;
642 -> 643 ;
644 [label="Husband_Occupation <= 2.5\ngini = 0.5\nsamples = 2\nvalue = [1, 1]\nclass = No"] ;
643 -> 644 ;
645 [label="gini = 0.0\nsamples = 1\nvalue = [0, 1]\nclass = Yes"] ;
644 -> 645 ;
646 [label="gini = 0.0\nsamples = 1\nvalue = [1, 0]\nclass = No"] ;
644 -> 646 ;
647 [label="gini = 0.0\nsamples = 7\nvalue = [0, 7]\nclass = Yes"] ;
643 -> 647 ;
648 [label="gini = 0.0\nsamples = 24\nvalue = [0, 24]\nclass = Yes"] ;
642 -> 648 ;
649 [label="Husband_education <= 1.5\ngini = 0.245\nsamples = 14\nvalue = [2, 12]\nclass = Yes"] ;
641 -> 649 ;
650 [label="Media_exposure <= 0.5\ngini = 0.444\nsamples = 6\nvalue = [2, 4]\nclass = Yes"] ;
649 -> 650 ;
651 [label="gini = 0.0\nsamples = 1\nvalue = [1, 0]\nclass = No"] ;
650 -> 651 ;
652 [label="Wife_education <= 0.5\ngini = 0.32\nsamples = 5\nvalue = [1, 4]\nclass = Yes"] ;
650 -> 652 ;
653 [label="gini = 0.0\nsamples = 3\nvalue = [0, 3]\nclass = Yes"] ;
652 -> 653 ;
654 [label="Wife_Working <= 0.5\ngini = 0.5\nsamples = 2\nvalue = [1, 1]\nclass = No"] ;
652 -> 654 ;
655 [label="gini = 0.0\nsamples = 1\nvalue = [1, 0]\nclass = No"] ;
654 -> 655 ;
656 [label="gini = 0.0\nsamples = 1\nvalue = [0, 1]\nclass = Yes"] ;
654 -> 656 ;
657 [label="gini = 0.0\nsamples = 8\nvalue = [0, 8]\nclass = Yes"] ;
649 -> 657 ;
658 [label="No_of_children_born <= 1.5\ngini = 0.5\nsamples = 101\nvalue = [51, 50]\nclass = No"] ;
614 -> 658 ;
659 [label="gini = 0.0\nsamples = 11\nvalue = [0, 11]\nclass = Yes"] ;
658 -> 659 ;
660 [label="Standard_of_living_index <= 2.5\ngini = 0.491\nsamples = 90\nvalue = [51, 39]\nclass = No"] ;
658 -> 660 ;
661 [label="Wife_religion <= 0.5\ngini = 0.453\nsamples = 26\nvalue = [9, 17]\nclass = Yes"] ;
660 -> 661 ;
662 [label="gini = 0.0\nsamples = 2\nvalue = [2, 0]\nclass = No"] ;
661 -> 662 ;
663 [label="No_of_children_born <= 5.5\ngini = 0.413\nsamples = 24\nvalue = [7, 17]\nclass = Yes"] ;
661 -> 663 ;
664 [label="No_of_children_born <= 3.5\ngini = 0.198\nsamples = 9\nvalue = [1, 8]\nclass = Yes"] ;
663 -> 664 ;
665 [label="Wife_age <= 47.5\ngini = 0.444\nsamples = 3\nvalue = [1, 2]\nclass = Yes"] ;
664 -> 665 ;
666 [label="gini = 0.0\nsamples = 1\nvalue = [0, 1]\nclass = Yes"] ;
665 -> 666 ;
667 [label="Standard_of_living_index <= 1.0\ngini = 0.5\nsamples = 2\nvalue = [1, 1]\nclass = No"] ;
665 -> 667 ;
668 [label="gini = 0.0\nsamples = 1\nvalue = [0, 1]\nclass = Yes"] ;
667 -> 668 ;
669 [label="gini = 0.0\nsamples = 1\nvalue = [1, 0]\nclass = No"] ;
667 -> 669 ;
670 [label="gini = 0.0\nsamples = 6\nvalue = [0, 6]\nclass = Yes"] ;
664 -> 670 ;
671 [label="No_of_children_born <= 9.5\ngini = 0.48\nsamples = 15\nvalue = [6, 9]\nclass = Yes"] ;
663 -> 671 ;
672 [label="Husband_education <= 1.5\ngini = 0.496\nsamples = 11\nvalue = [6, 5]\nclass = No"] ;
671 -> 672 ;
673 [label="gini = 0.0\nsamples = 2\nvalue = [0, 2]\nclass = Yes"] ;
672 -> 673 ;
674 [label="Husband_Occupation <= 3.5\ngini = 0.444\nsamples = 9\nvalue = [6, 3]\nclass = No"] ;
672 -> 674 ;
675 [label="Wife_age <= 47.0\ngini = 0.375\nsamples = 8\nvalue = [6, 2]\nclass = No"] ;
674 -> 675 ;
676 [label="No_of_children_born <= 6.5\ngini = 0.245\nsamples = 7\nvalue = [6, 1]\nclass = No"] ;
675 -> 676 ;
677 [label="Wife_age <= 42.5\ngini = 0.444\nsamples = 3\nvalue = [2, 1]\nclass = No"] ;
676 -> 677 ;
678 [label="gini = 0.0\nsamples = 1\nvalue = [1, 0]\nclass = No"] ;
677 -> 678 ;
679 [label="Standard_of_living_index <= 1.5\ngini = 0.5\nsamples = 2\nvalue = [1, 1]\nclass = No"] ;
677 -> 679 ;
680 [label="gini = 0.0\nsamples = 1\nvalue = [1, 0]\nclass = No"] ;
679 -> 680 ;
681 [label="gini = 0.0\nsamples = 1\nvalue = [0, 1]\nclass = Yes"] ;
679 -> 681 ;
682 [label="gini = 0.0\nsamples = 4\nvalue = [4, 0]\nclass = No"] ;
676 -> 682 ;
683 [label="gini = 0.0\nsamples = 1\nvalue = [0, 1]\nclass = Yes"] ;
675 -> 683 ;
684 [label="gini = 0.0\nsamples = 1\nvalue = [0, 1]\nclass = Yes"] ;
674 -> 684 ;
685 [label="gini = 0.0\nsamples = 4\nvalue = [0, 4]\nclass = Yes"] ;
671 -> 685 ;
686 [label="No_of_children_born <= 6.5\ngini = 0.451\nsamples = 64\nvalue = [42, 22]\nclass = No"] ;
660 -> 686 ;
687 [label="Wife_age <= 43.5\ngini = 0.492\nsamples = 48\nvalue = [27, 21]\nclass = No"] ;
686 -> 687 ;
688 [label="Wife_religion <= 0.5\ngini = 0.32\nsamples = 15\nvalue = [12, 3]\nclass = No"] ;
687 -> 688 ;
689 [label="gini = 0.0\nsamples = 4\nvalue = [4, 0]\nclass = No"] ;
688 -> 689 ;
690 [label="No_of_children_born <= 2.5\ngini = 0.397\nsamples = 11\nvalue = [8, 3]\nclass = No"] ;
688 -> 690 ;
691 [label="gini = 0.0\nsamples = 2\nvalue = [2, 0]\nclass = No"] ;
690 -> 691 ;
692 [label="Husband_Occupation <= 2.5\ngini = 0.444\nsamples = 9\nvalue = [6, 3]\nclass = No"] ;
690 -> 692 ;
693 [label="No_of_children_born <= 5.5\ngini = 0.469\nsamples = 8\nvalue = [5, 3]\nclass = No"] ;
692 -> 693 ;
694 [label="Wife_age <= 42.5\ngini = 0.49\nsamples = 7\nvalue = [4, 3]\nclass = No"] ;
693 -> 694 ;
695 [label="Wife_education <= 2.5\ngini = 0.444\nsamples = 3\nvalue = [2, 1]\nclass = No"] ;
694 -> 695 ;
696 [label="gini = 0.0\nsamples = 1\nvalue = [1, 0]\nclass = No"] ;
695 -> 696 ;
697 [label="gini = 0.5\nsamples = 2\nvalue = [1, 1]\nclass = No"] ;
695 -> 697 ;
698 [label="Husband_Occupation <= 1.5\ngini = 0.5\nsamples = 4\nvalue = [2, 2]\nclass = No"] ;
694 -> 698 ;
699 [label="No_of_children_born <= 4.0\ngini = 0.444\nsamples = 3\nvalue = [2, 1]\nclass = No"] ;
698 -> 699 ;
700 [label="gini = 0.0\nsamples = 1\nvalue = [1, 0]\nclass = No"] ;
699 -> 700 ;
701 [label="gini = 0.5\nsamples = 2\nvalue = [1, 1]\nclass = No"] ;
699 -> 701 ;
702 [label="gini = 0.0\nsamples = 1\nvalue = [0, 1]\nclass = Yes"] ;
698 -> 702 ;
703 [label="gini = 0.0\nsamples = 1\nvalue = [1, 0]\nclass = No"] ;
693 -> 703 ;
704 [label="gini = 0.0\nsamples = 1\nvalue = [1, 0]\nclass = No"] ;
692 -> 704 ;
705 [label="Wife_education <= 2.5\ngini = 0.496\nsamples = 33\nvalue = [15, 18]\nclass = Yes"] ;
687 -> 705 ;
706 [label="Wife_Working <= 0.5\ngini = 0.355\nsamples = 13\nvalue = [3, 10]\nclass = Yes"] ;
705 -> 706 ;
707 [label="Wife_age <= 48.5\ngini = 0.165\nsamples = 11\nvalue = [1, 10]\nclass = Yes"] ;
706 -> 707 ;
708 [label="gini = 0.0\nsamples = 9\nvalue = [0, 9]\nclass = Yes"] ;
707 -> 708 ;
709 [label="Husband_Occupation <= 2.0\ngini = 0.5\nsamples = 2\nvalue = [1, 1]\nclass = No"] ;
707 -> 709 ;
710 [label="gini = 0.0\nsamples = 1\nvalue = [0, 1]\nclass = Yes"] ;
709 -> 710 ;
711 [label="gini = 0.0\nsamples = 1\nvalue = [1, 0]\nclass = No"] ;
709 -> 711 ;
712 [label="gini = 0.0\nsamples = 2\nvalue = [2, 0]\nclass = No"] ;
706 -> 712 ;
713 [label="Wife_age <= 48.5\ngini = 0.48\nsamples = 20\nvalue = [12, 8]\nclass = No"] ;
705 -> 713 ;
714 [label="Media_exposure <= 0.5\ngini = 0.444\nsamples = 18\nvalue = [12, 6]\nclass = No"] ;
713 -> 714 ;
715 [label="gini = 0.0\nsamples = 1\nvalue = [0, 1]\nclass = Yes"] ;
714 -> 715 ;
716 [label="No_of_children_born <= 2.5\ngini = 0.415\nsamples = 17\nvalue = [12, 5]\nclass = No"] ;
714 -> 716 ;
717 [label="gini = 0.0\nsamples = 1\nvalue = [0, 1]\nclass = Yes"] ;
716 -> 717 ;
718 [label="Wife_Working <= 0.5\ngini = 0.375\nsamples = 16\nvalue = [12, 4]\nclass = No"] ;
716 -> 718 ;
719 [label="Wife_age <= 44.5\ngini = 0.444\nsamples = 12\nvalue = [8, 4]\nclass = No"] ;
718 -> 719 ;
720 [label="Husband_Occupation <= 1.5\ngini = 0.5\nsamples = 4\nvalue = [2, 2]\nclass = No"] ;
719 -> 720 ;
721 [label="gini = 0.0\nsamples = 2\nvalue = [2, 0]\nclass = No"] ;
720 -> 721 ;
722 [label="gini = 0.0\nsamples = 2\nvalue = [0, 2]\nclass = Yes"] ;
720 -> 722 ;
723 [label="Wife_age <= 47.5\ngini = 0.375\nsamples = 8\nvalue = [6, 2]\nclass = No"] ;
719 -> 723 ;
724 [label="gini = 0.0\nsamples = 4\nvalue = [4, 0]\nclass = No"] ;
723 -> 724 ;
725 [label="Wife_religion <= 0.5\ngini = 0.5\nsamples = 4\nvalue = [2, 2]\nclass = No"] ;
723 -> 725 ;
726 [label="No_of_children_born <= 3.5\ngini = 0.444\nsamples = 3\nvalue = [2, 1]\nclass = No"] ;
725 -> 726 ;
727 [label="gini = 0.0\nsamples = 1\nvalue = [1, 0]\nclass = No"] ;
726 -> 727 ;
728 [label="No_of_children_born <= 5.0\ngini = 0.5\nsamples = 2\nvalue = [1, 1]\nclass = No"] ;
726 -> 728 ;
729 [label="gini = 0.0\nsamples = 1\nvalue = [0, 1]\nclass = Yes"] ;
728 -> 729 ;
730 [label="gini = 0.0\nsamples = 1\nvalue = [1, 0]\nclass = No"] ;
728 -> 730 ;
731 [label="gini = 0.0\nsamples = 1\nvalue = [0, 1]\nclass = Yes"] ;
725 -> 731 ;
732 [label="gini = 0.0\nsamples = 4\nvalue = [4, 0]\nclass = No"] ;
718 -> 732 ;
733 [label="gini = 0.0\nsamples = 2\nvalue = [0, 2]\nclass = Yes"] ;
713 -> 733 ;
734 [label="Wife_age <= 48.5\ngini = 0.117\nsamples = 16\nvalue = [15, 1]\nclass = No"] ;
686 -> 734 ;
735 [label="gini = 0.0\nsamples = 12\nvalue = [12, 0]\nclass = No"] ;
734 -> 735 ;
736 [label="No_of_children_born <= 9.5\ngini = 0.375\nsamples = 4\nvalue = [3, 1]\nclass = No"] ;
734 -> 736 ;
737 [label="gini = 0.0\nsamples = 1\nvalue = [0, 1]\nclass = Yes"] ;
736 -> 737 ;
738 [label="gini = 0.0\nsamples = 3\nvalue = [3, 0]\nclass = No"] ;
736 -> 738 ;
}